{"learner":{"attributes":{"scikit_learn":"{\"_estimator_type\": \"regressor\"}"},"feature_names":[],"feature_types":[],"gradient_booster":{"model":{"cats":{"enc":[],"feature_segments":[],"sorted_idx":[]},"gbtree_model_param":{"num_parallel_tree":"1","num_trees":"500"},"iteration_indptr":[0,1,2,3,4,5,6,7,8,9,10,11,12,13,14,15,16,17,18,19,20,21,22,23,24,25,26,27,28,29,30,31,32,33,34,35,36,37,38,39,40,41,42,43,44,45,46,47,48,49,50,51,52,53,54,55,56,57,58,59,60,61,62,63,64,65,66,67,68,69,70,71,72,73,74,75,76,77,78,79,80,81,82,83,84,85,86,87,88,89,90,91,92,93,94,95,96,97,98,99,100,101,102,103,104,105,106,107,108,109,110,111,112,113,114,115,116,117,118,119,120,121,122,123,124,125,126,127,128,129,130,131,132,133,134,135,136,137,138,139,140,141,142,143,144,145,146,147,148,149,150,151,152,153,154,155,156,157,158,159,160,161,162,163,164,165,166,167,168,169,170,171,172,173,174,175,176,177,178,179,180,181,182,183,184,185,186,187,188,189,190,191,192,193,194,195,196,197,198,199,200,201,202,203,204,205,206,207,208,209,210,211,212,213,214,215,216,217,218,219,220,221,222,223,224,225,226,227,228,229,230,231,232,233,234,235,236,237,238,239,240,241,242,243,244,245,246,247,248,249,250,251,252,253,254,255,256,257,258,259,260,261,262,263,264,265,266,267,268,269,270,271,272,273,274,275,276,277,278,279,280,281,282,283,284,285,286,287,288,289,290,291,292,293,294,295,296,297,298,299,300,301,302,303,304,305,306,307,308,309,310,311,312,313,314,315,316,317,318,319,320,321,322,323,324,325,326,327,328,329,330,331,332,333,334,335,336,337,338,339,340,341,342,343,344,345,346,347,348,349,350,351,352,353,354,355,356,357,358,359,360,361,362,363,364,365,366,367,368,369,370,371,372,373,374,375,376,377,378,379,380,381,382,383,384,385,386,387,388,389,390,391,392,393,394,395,396,397,398,399,400,401,402,403,404,405,406,407,408,409,410,411,412,413,414,415,416,417,418,419,420,421,422,423,424,425,426,427,428,429,430,431,432,433,434,435,436,437,438,439,440,441,442,443,444,445,446,447,448,449,450,451,452,453,454,455,456,457,458,459,460,461,462,463,464,465,466,467,468,469,470,471,472,473,474,475,476,477,478,479,480,481,482,483,484,485,486,487,488,489,490,491,492,493,494,495,496,497,498,499,500],"tree_info":[0,0,0,0,0,0,0,0,0,0,0,0,0,0,0,0,0,0,0,0,0,0,0,0,0,0,0,0,0,0,0,0,0,0,0,0,0,0,0,0,0,0,0,0,0,0,0,0,0,0,0,0,0,0,0,0,0,0,0,0,0,0,0,0,0,0,0,0,0,0,0,0,0,0,0,0,0,0,0,0,0,0,0,0,0,0,0,0,0,0,0,0,0,0,0,0,0,0,0,0,0,0,0,0,0,0,0,0,0,0,0,0,0,0,0,0,0,0,0,0,0,0,0,0,0,0,0,0,0,0,0,0,0,0,0,0,0,0,0,0,0,0,0,0,0,0,0,0,0,0,0,0,0,0,0,0,0,0,0,0,0,0,0,0,0,0,0,0,0,0,0,0,0,0,0,0,0,0,0,0,0,0,0,0,0,0,0,0,0,0,0,0,0,0,0,0,0,0,0,0,0,0,0,0,0,0,0,0,0,0,0,0,0,0,0,0,0,0,0,0,0,0,0,0,0,0,0,0,0,0,0,0,0,0,0,0,0,0,0,0,0,0,0,0,0,0,0,0,0,0,0,0,0,0,0,0,0,0,0,0,0,0,0,0,0,0,0,0,0,0,0,0,0,0,0,0,0,0,0,0,0,0,0,0,0,0,0,0,0,0,0,0,0,0,0,0,0,0,0,0,0,0,0,0,0,0,0,0,0,0,0,0,0,0,0,0,0,0,0,0,0,0,0,0,0,0,0,0,0,0,0,0,0,0,0,0,0,0,0,0,0,0,0,0,0,0,0,0,0,0,0,0,0,0,0,0,0,0,0,0,0,0,0,0,0,0,0,0,0,0,0,0,0,0,0,0,0,0,0,0,0,0,0,0,0,0,0,0,0,0,0,0,0,0,0,0,0,0,0,0,0,0,0,0,0,0,0,0,0,0,0,0,0,0,0,0,0,0,0,0,0,0,0,0,0,0,0,0,0,0,0,0,0,0,0,0,0,0,0,0,0,0,0,0,0,0,0,0,0,0,0,0,0,0,0,0,0,0,0,0,0,0,0,0,0,0,0,0,0,0,0,0,0,0,0,0,0,0,0,0,0,0,0,0,0,0,0,0,0,0,0,0,0,0,0,0,0,0,0,0],"trees":[{"base_weights":[3.2394705E-3,-4.1995996E-1,8.2207495E-1,-6.980873E-1,-6.282112E-2,5.635935E-1,1.7270851E0,-1.025402E0,-5.6019145E-1,1.4992885E-1,-2.097759E-1,8.6071765E-1,3.080859E-1,1.4665201E0,2.671722E0,-6.4427346E-2,-4.6689052E-2,-3.3076312E-2,-2.2191001E-2,6.21784E-3,6.2742196E-2,-1.0781186E-2,1.9323514E-1,3.6673427E-2,8.9146785E-2,8.323365E-3,2.7130825E-2,7.201089E-2,4.4959545E-1,1.13322236E-1,1.5784262E-1],"categories":[],"categories_nodes":[],"categories_segments":[],"categories_sizes":[],"default_left":[0,0,0,0,0,0,0,0,0,0,0,0,0,0,0,0,0,0,0,0,0,0,0,0,0,0,0,0,0,0,0],"id":0,"left_children":[1,3,5,7,9,11,13,15,17,19,21,23,25,27,29,-1,-1,-1,-1,-1,-1,-1,-1,-1,-1,-1,-1,-1,-1,-1,-1],"loss_changes":[7.0387705E3,1.3300088E3,1.6178164E3,3.3904614E2,1.833732E2,4.084336E2,3.739839E2,5.2338867E1,6.2084106E1,6.740492E1,8.312332E1,2.905282E2,9.605945E1,2.249148E2,5.738159E1,0E0,0E0,0E0,0E0,0E0,0E0,0E0,0E0,0E0,0E0,0E0,0E0,0E0,0E0,0E0,0E0],"parents":[2147483647,0,0,1,1,2,2,3,3,4,4,5,5,6,6,7,7,8,8,9,9,10,10,11,11,12,12,13,13,14,14],"right_children":[2,4,6,8,10,12,14,16,18,20,22,24,26,28,30,-1,-1,-1,-1,-1,-1,-1,-1,-1,-1,-1,-1,-1,-1,-1,-1],"split_conditions":[8.546932E1,-3.5065674E1,2.657775E2,-1.9692087E2,1.5012438E3,1.4721884E3,4.2362326E2,-3.5180087E2,-9.515775E1,1.5E3,8E0,2.25E0,1.6425198E2,5.6666665E0,1.5E0,-6.4427346E-2,-4.6689052E-2,-3.3076312E-2,-2.2191001E-2,6.21784E-3,6.2742196E-2,-1.0781186E-2,1.9323514E-1,3.6673427E-2,8.9146785E-2,8.323365E-3,2.7130825E-2,7.201089E-2,4.4959545E-1,1.13322236E-1,1.5784262E-1],"split_indices":[0,0,0,0,2,2,0,0,0,2,3,3,0,3,12,0,0,0,0,0,0,0,0,0,0,0,0,0,0,0,0],"split_type":[0,0,0,0,0,0,0,0,0,0,0,0,0,0,0,0,0,0,0,0,0,0,0,0,0,0,0,0,0,0,0],"sum_hessian":[2.031E4,1.339E4,6.92E3,7.527E3,5.863E3,5.384E3,1.536E3,2.229E3,5.298E3,2.395E3,3.468E3,2.488E3,2.896E3,1.206E3,3.3E2,5.72E2,1.657E3,2.829E3,2.469E3,2.342E3,5.3E1,3.464E3,4E0,2.188E3,3E2,1.807E3,1.089E3,1.203E3,3E0,1.83E2,1.47E2],"tree_param":{"num_deleted":"0","num_feature":"14","num_nodes":"31","size_leaf_vector":"1"}},{"base_weights":[2.0156794E-3,-4.060877E-1,7.8155357E-1,-7.724713E-1,-1.7600246E-1,6.0290647E-1,2.6644194E0,-1.0633458E0,-6.569851E-1,-1.9902869E-1,3.0731964E0,4.381246E-1,1.7230492E0,2.4332647E0,5.1934385E0,-6.049651E-2,-4.723084E-2,-3.3277098E-2,1.7142529E-2,-1.2359128E-2,1.989079E-2,1.0104308E-1,2.3493981E-1,1.3596982E-2,3.5090145E-2,7.68108E-2,1.3710469E-1,1.096918E-1,1.8893692E-1,1.8301216E-1,3.565825E-1],"categories":[],"categories_nodes":[],"categories_segments":[],"categories_sizes":[],"default_left":[0,0,0,0,0,0,0,0,0,0,0,0,0,0,0,0,0,0,0,0,0,0,0,0,0,0,0,0,0,0,0],"id":1,"left_children":[1,3,5,7,9,11,13,15,17,19,21,23,25,27,29,-1,-1,-1,-1,-1,-1,-1,-1,-1,-1,-1,-1,-1,-1,-1,-1],"loss_changes":[6.4991562E3,1.1301406E3,2.3593745E3,1.7286719E2,6.1666486E2,1.1827354E3,3.420332E2,2.419043E1,3.1958252E1,2.3520828E2,8.9051575E1,2.4474963E2,1.5186133E2,1.7119214E2,1.2140015E2,0E0,0E0,0E0,0E0,0E0,0E0,0E0,0E0,0E0,0E0,0E0,0E0,0E0,0E0,0E0,0E0],"parents":[2147483647,0,0,1,1,2,2,3,3,4,4,5,5,6,6,7,7,8,8,9,9,10,10,11,11,12,12,13,13,14,14],"right_children":[2,4,6,8,10,12,14,16,18,20,22,24,26,28,30,-1,-1,-1,-1,-1,-1,-1,-1,-1,-1,-1,-1,-1,-1,-1,-1],"split_conditions":[8.22632E1,-9.515775E1,3.2E0,-2.4763054E2,5.8E0,3.1505408E2,6.2E0,-3.394755E2,3.5E0,2.5E0,7.8E0,1.7877222E2,4.969756E2,2.5E0,1.6666666E0,-6.049651E-2,-4.723084E-2,-3.3277098E-2,1.7142529E-2,-1.2359128E-2,1.989079E-2,1.0104308E-1,2.3493981E-1,1.3596982E-2,3.5090145E-2,7.68108E-2,1.3710469E-1,1.096918E-1,1.8893692E-1,1.8301216E-1,3.565825E-1],"split_indices":[0,0,6,0,6,0,6,0,6,6,6,0,0,3,3,0,0,0,0,0,0,0,0,0,0,0,0,0,0,0,0],"split_type":[0,0,0,0,0,0,0,0,0,0,0,0,0,0,0,0,0,0,0,0,0,0,0,0,0,0,0,0,0,0,0],"sum_hessian":[2.0427E4,1.3408E4,7.019E3,5.171E3,8.237E3,6.412E3,6.07E2,1.467E3,3.704E3,8.18E3,5.7E1,5.591E3,8.21E2,5.58E2,4.9E1,6.52E2,8.15E2,3.673E3,3.1E1,7.57E3,6.1E2,3.6E1,2.1E1,3.431E3,2.16E3,6.96E2,1.25E2,4.76E2,8.2E1,2.9E1,2E1],"tree_param":{"num_deleted":"0","num_feature":"14","num_nodes":"31","size_leaf_vector":"1"}},{"base_weights":[-3.1533365E-3,-4.595856E-1,6.075111E-1,-7.473583E-1,-2.3119697E-1,4.566301E-1,2.3603392E0,-9.5915073E-1,-5.9475464E-1,-2.7070326E-1,1.8849856E0,3.253169E-1,1.4496615E0,1.3248013E0,3.012149E0,-6.2921666E-2,-4.5386024E-2,-3.0224953E-2,1.1009789E-2,-2.0647889E-2,-8.649788E-3,7.8196876E-2,3.8270336E-1,8.1483675E-3,2.7671663E-2,6.576689E-2,1.1929156E-1,4.610513E-2,9.559641E-2,1.2740895E-1,2.3591864E-1],"categories":[],"categories_nodes":[],"categories_segments":[],"categories_sizes":[],"default_left":[0,0,0,0,0,0,0,0,0,0,0,0,0,0,0,0,0,0,0,0,0,0,0,0,0,0,0,0,0,0,0],"id":2,"left_children":[1,3,5,7,9,11,13,15,17,19,21,23,25,27,29,-1,-1,-1,-1,-1,-1,-1,-1,-1,-1,-1,-1,-1,-1,-1,-1],"loss_changes":[5.6673413E3,7.6449414E2,2.2987224E3,1.6565894E2,5.428455E2,1.0437097E3,4.606328E2,3.179602E1,2.3955444E1,8.842258E1,2.0751376E2,2.6185785E2,1.1406775E2,6.1318207E1,3.2132104E2,0E0,0E0,0E0,0E0,0E0,0E0,0E0,0E0,0E0,0E0,0E0,0E0,0E0,0E0,0E0,0E0],"parents":[2147483647,0,0,1,1,2,2,3,3,4,4,5,5,6,6,7,7,8,8,9,9,10,10,11,11,12,12,13,13,14,14],"right_children":[2,4,6,8,10,12,14,16,18,20,22,24,26,28,30,-1,-1,-1,-1,-1,-1,-1,-1,-1,-1,-1,-1,-1,-1,-1,-1],"split_conditions":[4.6058037E1,-9.515775E1,3.2E0,-2.0076675E2,4.2E0,2.9879886E2,1.4684716E3,-4.094197E2,3.5E0,-3.1440544E1,1.4873923E3,1.4860237E2,4.969756E2,1.6879042E2,5E0,-6.2921666E-2,-4.5386024E-2,-3.0224953E-2,1.1009789E-2,-2.0647889E-2,-8.649788E-3,7.8196876E-2,3.8270336E-1,8.1483675E-3,2.7671663E-2,6.576689E-2,1.1929156E-1,4.610513E-2,9.559641E-2,1.2740895E-1,2.3591864E-1],"split_indices":[0,0,6,0,6,0,1,0,6,0,2,0,0,0,6,0,0,0,0,0,0,0,0,0,0,0,0,0,0,0,0],"split_type":[0,0,0,0,0,0,0,0,0,0,0,0,0,0,0,0,0,0,0,0,0,0,0,0,0,0,0,0,0,0,0],"sum_hessian":[2.0331E4,1.1635E4,8.696E3,5.147E3,6.488E3,8.008E3,6.88E2,2.153E3,2.994E3,6.37E3,1.18E2,7.074E3,9.34E2,2.67E2,4.21E2,3.12E2,1.841E3,2.959E3,3.5E1,2.592E3,3.778E3,1.13E2,5E0,4.134E3,2.94E3,8.19E2,1.15E2,1.6E2,1.07E2,3.33E2,8.8E1],"tree_param":{"num_deleted":"0","num_feature":"14","num_nodes":"31","size_leaf_vector":"1"}},{"base_weights":[-7.221963E-4,-3.5231483E-1,7.001273E-1,-5.9244746E-1,-4.873299E-2,5.217308E-1,1.5887445E0,-8.4952E-1,-4.5984516E-1,1.127885E-1,-1.8456346E-1,7.402394E-1,2.3349158E-1,1.9639573E0,1.0598915E0,-5.7182055E-2,-3.905047E-2,-2.8030828E-2,-1.9942082E-2,-1.7604822E-3,1.321908E-2,-1.4368131E-2,-4.7626537E-3,1.836443E-2,4.462514E-2,1.7321084E-2,-7.0789404E-4,5.1183015E-2,1.051773E-1,3.8324375E-2,7.8586124E-2],"categories":[],"categories_nodes":[],"categories_segments":[],"categories_sizes":[],"default_left":[0,0,0,0,0,0,0,0,0,0,0,0,0,0,0,0,0,0,0,0,0,0,0,0,0,0,0,0,0,0,0],"id":3,"left_children":[1,3,5,7,9,11,13,15,17,19,21,23,25,27,29,-1,-1,-1,-1,-1,-1,-1,-1,-1,-1,-1,-1,-1,-1,-1,-1],"loss_changes":[5.0275405E3,9.903981E2,1.0794746E3,2.58073E2,1.317091E2,3.5734583E2,2.2363086E2,5.0902588E1,3.0460571E1,6.155036E1,2.9873703E1,1.8291064E2,6.855745E1,8.4818115E1,6.989374E1,0E0,0E0,0E0,0E0,0E0,0E0,0E0,0E0,0E0,0E0,0E0,0E0,0E0,0E0,0E0,0E0],"parents":[2147483647,0,0,1,1,2,2,3,3,4,4,5,5,6,6,7,7,8,8,9,9,10,10,11,11,12,12,13,13,14,14],"right_children":[2,4,6,8,10,12,14,16,18,20,22,24,26,28,30,-1,-1,-1,-1,-1,-1,-1,-1,-1,-1,-1,-1,-1,-1,-1,-1],"split_conditions":[8.717066E1,-3.5065674E1,2.9879886E2,-1.8228142E2,1.518032E3,1.5063405E3,1.3738818E3,-3.709902E2,-1.1259755E2,2.8733732E1,1.7962688E1,1E0,1E0,1.501321E3,3.684797E2,-5.7182055E-2,-3.905047E-2,-2.8030828E-2,-1.9942082E-2,-1.7604822E-3,1.321908E-2,-1.4368131E-2,-4.7626537E-3,1.836443E-2,4.462514E-2,1.7321084E-2,-7.0789404E-4,5.1183015E-2,1.051773E-1,3.8324375E-2,7.8586124E-2],"split_indices":[0,0,0,0,2,2,2,0,0,0,0,12,7,1,0,0,0,0,0,0,0,0,0,0,0,0,0,0,0,0,0],"split_type":[0,0,0,0,0,0,0,0,0,0,0,0,0,0,0,0,0,0,0,0,0,0,0,0,0,0,0,0,0,0,0],"sum_hessian":[2.0401E4,1.3586E4,6.815E3,7.585E3,6.001E3,5.677E3,1.138E3,2.579E3,5.006E3,2.741E3,3.26E3,3.228E3,2.449E3,6.64E2,4.74E2,4.84E2,2.095E3,1.884E3,3.122E3,1.387E3,1.354E3,1.514E3,1.746E3,9.37E2,2.291E3,1.682E3,7.67E2,8.7E1,5.77E2,3.03E2,1.71E2],"tree_param":{"num_deleted":"0","num_feature":"14","num_nodes":"31","size_leaf_vector":"1"}},{"base_weights":[3.5877057E-4,-3.3468005E-1,6.5024966E-1,-5.681746E-1,-4.7570154E-2,4.871326E-1,2.317539E0,-8.6057127E-1,-4.6515536E-1,-9.091819E-2,1.9959573E0,3.6941823E-1,1.3185204E0,1.2633826E0,2.8915155E0,-5.4302882E-2,-3.904455E-2,-2.3697397E-2,1.1893719E-1,-6.730722E-3,2.400678E-2,8.557981E-2,5.0724894E-1,1.4762281E-2,3.7390143E-2,5.623259E-2,8.9168295E-2,4.1469846E-2,8.9981936E-2,1.11737154E-1,2.0840159E-1],"categories":[],"categories_nodes":[],"categories_segments":[],"categories_sizes":[],"default_left":[0,0,0,0,0,0,0,0,0,0,0,0,0,0,0,0,0,0,0,0,0,0,0,0,0,0,0,0,0,0,0],"id":4,"left_children":[1,3,5,7,9,11,13,15,17,19,21,23,25,27,29,-1,-1,-1,-1,-1,-1,-1,-1,-1,-1,-1,-1,-1,-1,-1,-1],"loss_changes":[4.4268765E3,8.99234E2,1.8794883E3,2.2231323E2,5.3308295E2,6.159995E2,3.6864917E2,3.3569458E1,1.377904E2,1.471025E2,2.7110822E2,1.5462598E2,6.80863E1,4.9211792E1,3.237212E2,0E0,0E0,0E0,0E0,0E0,0E0,0E0,0E0,0E0,0E0,0E0,0E0,0E0,0E0,0E0,0E0],"parents":[2147483647,0,0,1,1,2,2,3,3,4,4,5,5,6,6,7,7,8,8,9,9,10,10,11,11,12,12,13,13,14,14],"right_children":[2,4,6,8,10,12,14,16,18,20,22,24,26,28,30,-1,-1,-1,-1,-1,-1,-1,-1,-1,-1,-1,-1,-1,-1,-1,-1],"split_conditions":[8.546932E1,-3.8487976E1,3.2E0,-2.1361542E2,4.2E0,3.1505408E2,1.4684716E3,-3.709902E2,6E0,2.5E0,4.2E0,2.2E0,4.2362326E2,1.6879042E2,4.4E0,-5.4302882E-2,-3.904455E-2,-2.3697397E-2,1.1893719E-1,-6.730722E-3,2.400678E-2,8.557981E-2,5.0724894E-1,1.4762281E-2,3.7390143E-2,5.623259E-2,8.9168295E-2,4.1469846E-2,8.9981936E-2,1.11737154E-1,2.0840159E-1],"split_indices":[0,0,6,0,6,0,1,0,6,6,3,6,0,0,6,0,0,0,0,0,0,0,0,0,0,0,0,0,0,0,0],"split_type":[0,0,0,0,0,0,0,0,0,0,0,0,0,0,0,0,0,0,0,0,0,0,0,0,0,0,0,0,0,0,0],"sum_hessian":[2.0329E4,1.3414E4,6.915E3,7.397E3,6.017E3,6.3E3,6.15E2,1.925E3,5.472E3,5.893E3,1.24E2,5.52E3,7.8E2,2.18E2,3.97E2,4.99E2,1.426E3,5.456E3,1.6E1,5.475E3,4.18E2,1.21E2,3E0,4.617E3,9.03E2,5.53E2,2.27E2,1.22E2,9.6E1,2.64E2,1.33E2],"tree_param":{"num_deleted":"0","num_feature":"14","num_nodes":"31","size_leaf_vector":"1"}},{"base_weights":[1.13018796E-4,-8.443467E-2,1.6657786E0,2.4818629E-1,-2.763661E-1,1.6027958E0,1.0168134E1,7.917647E-1,8.4627844E-2,-3.763328E-2,-5.102078E-1,2.321647E0,1.1710505E0,6.694762E-1,2.1898544E-1,8.472517E-2,2.9890075E-2,2.2670934E-2,-1.4482811E-3,-8.330657E-3,1.0666465E-2,-1.9258583E-2,-3.189341E-2,1.0170342E-1,2.0634075E-1,5.141152E-2,1.6761707E-1],"categories":[],"categories_nodes":[],"categories_segments":[],"categories_sizes":[],"default_left":[0,0,0,0,0,0,0,0,0,0,0,0,0,0,0,0,0,0,0,0,0,0,0,0,0,0,0],"id":5,"left_children":[1,3,5,7,9,11,13,15,17,19,21,23,25,-1,-1,-1,-1,-1,-1,-1,-1,-1,-1,-1,-1,-1,-1],"loss_changes":[2.8540413E3,1.2312979E3,5.0678198E2,6.2726086E2,6.8267395E2,2.9891284E2,7.01084E1,2.84518E2,2.273628E2,1.9596115E2,9.826636E1,1.7995215E2,1.8614966E2,0E0,0E0,0E0,0E0,0E0,0E0,0E0,0E0,0E0,0E0,0E0,0E0,0E0,0E0],"parents":[2147483647,0,0,1,1,2,2,3,3,4,4,5,5,6,6,7,7,8,8,9,9,10,10,11,11,12,12],"right_children":[2,4,6,8,10,12,14,16,18,20,22,24,26,-1,-1,-1,-1,-1,-1,-1,-1,-1,-1,-1,-1,-1,-1],"split_conditions":[3.2E0,1.5027434E3,5.6666665E0,6E0,6E0,1.25E0,1.3862445E3,1.3564845E3,1.3372474E3,5E0,1.6131752E3,5.3333335E0,7.8E0,6.694762E-1,2.1898544E-1,8.472517E-2,2.9890075E-2,2.2670934E-2,-1.4482811E-3,-8.330657E-3,1.0666465E-2,-1.9258583E-2,-3.189341E-2,1.0170342E-1,2.0634075E-1,5.141152E-2,1.6761707E-1],"split_indices":[6,2,3,8,8,4,2,2,2,9,2,6,6,0,0,0,0,0,0,0,0,0,0,0,0,0,0],"split_type":[0,0,0,0,0,0,0,0,0,0,0,0,0,0,0,0,0,0,0,0,0,0,0,0,0,0,0],"sum_hessian":[2.0263E4,1.9285E4,9.78E2,7.056E3,1.2229E4,9.72E2,6E0,1.631E3,5.425E3,6.052E3,6.177E3,3.63E2,6.09E2,3E0,3E0,2.87E2,1.344E3,1.277E3,4.148E3,3.998E3,2.054E3,3.123E3,3.054E3,3.15E2,4.8E1,5.73E2,3.6E1],"tree_param":{"num_deleted":"0","num_feature":"14","num_nodes":"27","size_leaf_vector":"1"}},{"base_weights":[2.4610104E-3,-1.1422871E-1,1.1451E0,1.7516811E-1,-2.752028E-1,9.5968467E-1,3.1921866E0,-2.9378003E-1,4.4243032E-1,-5.1248383E-2,-4.9863777E-1,4.0052608E-1,1.4614476E0,1.0526603E0,4.3573995E0,1.143142E-2,-1.92482E-2,6.809351E-2,1.8593717E-2,7.2647566E-3,-1.0707701E-2,-3.423218E-2,-1.8917153E-2,2.8687287E-2,-1.7246002E-2,5.27361E-2,1.115393E-1,6.645142E-2,-3.7958823E-2,1.9798468E-1,6.443709E-1],"categories":[],"categories_nodes":[],"categories_segments":[],"categories_sizes":[],"default_left":[0,0,0,0,0,0,0,0,0,0,0,0,0,0,0,0,0,0,0,0,0,0,0,0,0,0,0,0,0,0,0],"id":6,"left_children":[1,3,5,7,9,11,13,15,17,19,21,23,25,27,29,-1,-1,-1,-1,-1,-1,-1,-1,-1,-1,-1,-1,-1,-1,-1,-1],"loss_changes":[2.6937188E3,8.539684E2,7.070598E2,8.2132074E2,5.8933167E2,4.8123926E2,3.812876E2,1.1342799E2,2.7009583E2,1.8843217E2,1.3156067E2,1.0532927E2,2.8050146E2,2.9107052E1,2.865288E2,0E0,0E0,0E0,0E0,0E0,0E0,0E0,0E0,0E0,0E0,0E0,0E0,0E0,0E0,0E0,0E0],"parents":[2147483647,0,0,1,1,2,2,3,3,4,4,5,5,6,6,7,7,8,8,9,9,10,10,11,11,12,12,13,13,14,14],"right_children":[2,4,6,8,10,12,14,16,18,20,22,24,26,28,30,-1,-1,-1,-1,-1,-1,-1,-1,-1,-1,-1,-1,-1,-1,-1,-1],"split_conditions":[2.5E0,1.508386E3,5.6E0,1.450526E3,6E0,1.4684716E3,1.4096688E3,1.2738086E3,1.2885927E3,1.6480156E3,1.4737335E3,3.2E0,3.4E0,5.3333335E0,5.6666665E0,1.143142E-2,-1.92482E-2,6.809351E-2,1.8593717E-2,7.2647566E-3,-1.0707701E-2,-3.423218E-2,-1.8917153E-2,2.8687287E-2,-1.7246002E-2,5.27361E-2,1.115393E-1,6.645142E-2,-3.7958823E-2,1.9798468E-1,6.443709E-1],"split_indices":[6,2,6,1,8,1,1,2,2,2,1,4,6,4,3,0,0,0,0,0,0,0,0,0,0,0,0,0,0,0,0],"split_type":[0,0,0,0,0,0,0,0,0,0,0,0,0,0,0,0,0,0,0,0,0,0,0,0,0,0,0,0,0,0,0],"sum_hessian":[2.02E4,1.8329E4,1.871E3,6.551E3,1.1778E4,1.717E3,1.54E2,2.378E3,4.173E3,5.883E3,5.895E3,8.13E2,9.04E2,5.5E1,9.9E1,3.53E2,2.025E3,2.96E2,3.877E3,2.666E3,3.217E3,2.313E3,3.582E3,6.6E2,1.53E2,5.93E2,3.11E2,4.8E1,7E0,9.6E1,3E0],"tree_param":{"num_deleted":"0","num_feature":"14","num_nodes":"31","size_leaf_vector":"1"}},{"base_weights":[2.4647044E-3,-2.6182392E-1,6.831647E-1,-5.014244E-1,-1.6002607E-2,5.286757E-1,2.131727E0,-7.3587406E-1,-4.079557E-1,-5.9511997E-2,2.1072764E0,3.772407E-1,1.2329565E0,1.7897114E0,3.4432192E0,-3.7709646E-2,2.5688592E-2,-2.0671135E-2,7.693844E-2,-5.9661935E-3,1.013144E-2,9.4497114E-2,4.6354088E-1,1.3238685E-2,3.0741751E-2,5.575831E-2,1.0173153E-1,8.442701E-2,2.019885E-1,1.3782969E-1,2.859206E-1],"categories":[],"categories_nodes":[],"categories_segments":[],"categories_sizes":[],"default_left":[0,0,0,0,0,0,0,0,0,0,0,0,0,0,0,0,0,0,0,0,0,0,0,0,0,0,0,0,0,0,0],"id":7,"left_children":[1,3,5,7,9,11,13,15,17,19,21,23,25,27,29,-1,-1,-1,-1,-1,-1,-1,-1,-1,-1,-1,-1,-1,-1,-1,-1],"loss_changes":[3.6536565E3,8.6157214E2,1.269717E3,1.6192224E2,6.671076E2,5.469291E2,2.3867163E2,4.8713745E1,5.691919E1,1.1099274E2,2.0711047E2,1.1270111E2,8.315808E1,9.1857544E1,1.583562E2,0E0,0E0,0E0,0E0,0E0,0E0,0E0,0E0,0E0,0E0,0E0,0E0,0E0,0E0,0E0,0E0],"parents":[2147483647,0,0,1,1,2,2,3,3,4,4,5,5,6,6,7,7,8,8,9,9,10,10,11,11,12,12,13,13,14,14],"right_children":[2,4,6,8,10,12,14,16,18,20,22,24,26,28,30,-1,-1,-1,-1,-1,-1,-1,-1,-1,-1,-1,-1,-1,-1,-1,-1],"split_conditions":[1.1347021E2,-3.8487976E1,3.2E0,-2.0076675E2,4.2E0,2.9879886E2,5E0,1.9E0,6E0,2E0,4.4E0,1.6666666E0,4.969756E2,5.705456E2,1.3600881E3,-3.7709646E-2,2.5688592E-2,-2.0671135E-2,7.693844E-2,-5.9661935E-3,1.013144E-2,9.4497114E-2,4.6354088E-1,1.3238685E-2,3.0741751E-2,5.575831E-2,1.0173153E-1,8.442701E-2,2.019885E-1,1.3782969E-1,2.859206E-1],"split_indices":[0,0,6,0,6,0,6,11,6,6,3,6,0,0,2,0,0,0,0,0,0,0,0,0,0,0,0,0,0,0,0],"split_type":[0,0,0,0,0,0,0,0,0,0,0,0,0,0,0,0,0,0,0,0,0,0,0,0,0,0,0,0,0,0,0],"sum_hessian":[2.0307E4,1.4628E4,5.679E3,7.407E3,7.221E3,5.133E3,5.46E2,2.109E3,5.298E3,7.077E3,1.44E2,4.226E3,9.07E2,4.35E2,1.11E2,2.079E3,3E1,5.284E3,1.4E1,5.763E3,1.314E3,1.41E2,3E0,2.87E3,1.356E3,7.93E2,1.14E2,4.18E2,1.7E1,8.7E1,2.4E1],"tree_param":{"num_deleted":"0","num_feature":"14","num_nodes":"31","size_leaf_vector":"1"}},{"base_weights":[-1.1223521E-3,-2.858306E-1,5.726452E-1,-3.0054215E-1,2.9147985E0,3.9092368E-1,1.5333698E0,-5.52148E-1,-1.4222507E-1,1.2213875E0,5.0610204E0,2.0512158E-1,6.987607E-1,1.2667542E0,2.5607207E0,-4.1324854E-2,-2.4276653E-2,-8.859423E-3,1.570164E-2,-6.9482117E-3,1.0003358E-1,3.0930173E-1,8.016784E-2,1.4829325E-2,-7.557204E-4,2.974951E-2,6.580214E-2,5.838539E-2,1.8402426E-1,6.521102E-2,1.7215218E-1],"categories":[],"categories_nodes":[],"categories_segments":[],"categories_sizes":[],"default_left":[0,0,0,0,0,0,0,0,0,0,0,0,0,0,0,0,0,0,0,0,0,0,0,0,0,0,0,0,0,0,0],"id":8,"left_children":[1,3,5,7,9,11,13,15,17,19,21,23,25,27,29,-1,-1,-1,-1,-1,-1,-1,-1,-1,-1,-1,-1,-1,-1,-1,-1],"loss_changes":[3.3085908E3,6.380217E2,1.1718909E3,5.3664844E2,2.1852533E2,3.2292798E2,2.8890698E2,9.457446E1,1.320155E2,3.862782E1,9.4330505E1,7.103975E1,1.3520813E2,1.9842786E2,2.3782666E2,0E0,0E0,0E0,0E0,0E0,0E0,0E0,0E0,0E0,0E0,0E0,0E0,0E0,0E0,0E0,0E0],"parents":[2147483647,0,0,1,1,2,2,3,3,4,4,5,5,6,6,7,7,8,8,9,9,10,10,11,11,12,12,13,13,14,14],"right_children":[2,4,6,8,10,12,14,16,18,20,22,24,26,28,30,-1,-1,-1,-1,-1,-1,-1,-1,-1,-1,-1,-1,-1,-1,-1,-1],"split_conditions":[8.91196E1,6E0,2.5E0,-9.075586E1,1.4071794E3,2.0232365E2,4.25E0,-2.8483456E2,2.5E0,1.2907848E3,1.2E0,1E0,3.828975E2,5.705456E2,1.4843518E3,-4.1324854E-2,-2.4276653E-2,-8.859423E-3,1.570164E-2,-6.9482117E-3,1.0003358E-1,3.0930173E-1,8.016784E-2,1.4829325E-2,-7.557204E-4,2.974951E-2,6.580214E-2,5.838539E-2,1.8402426E-1,6.521102E-2,1.7215218E-1],"split_indices":[0,6,6,0,1,0,6,0,6,1,5,7,0,0,1,0,0,0,0,0,0,0,0,0,0,0,0,0,0,0,0],"split_type":[0,0,0,0,0,0,0,0,0,0,0,0,0,0,0,0,0,0,0,0,0,0,0,0,0,0,0,0,0,0,0],"sum_hessian":[2.0252E4,1.3536E4,6.716E3,1.3475E4,6.1E1,5.649E3,1.067E3,5.203E3,8.272E3,3.5E1,2.6E1,3.524E3,2.125E3,8.49E2,2.18E2,1.014E3,4.189E3,7.684E3,5.88E2,1.3E1,2.2E1,1.9E1,7E0,2.49E3,1.034E3,1.821E3,3.04E2,8.17E2,3.2E1,9.1E1,1.27E2],"tree_param":{"num_deleted":"0","num_feature":"14","num_nodes":"31","size_leaf_vector":"1"}},{"base_weights":[-2.909139E-3,-3.040765E-1,4.6465063E-1,-5.195791E-1,-1.4584899E-1,3.100472E-1,1.0433598E0,-6.750025E-1,-4.1140428E-1,-2.4475688E-1,-2.712628E-2,5.088696E-1,1.5203308E-1,1.48795E0,7.2030073E-1,-3.451502E-2,1.5958317E-2,-1.8192379E-2,-2.6065264E-2,-7.4658254E-3,-1.4673877E-2,4.001991E-3,-7.7133863E-3,2.0059172E-2,6.470293E-2,7.0361807E-3,8.556264E-2,6.7779206E-2,1.250277E-1,2.8345872E-2,6.298799E-2],"categories":[],"categories_nodes":[],"categories_segments":[],"categories_sizes":[],"default_left":[0,0,0,0,0,0,0,0,0,0,0,0,0,0,0,0,0,0,0,0,0,0,0,0,0,0,0,0,0,0,0],"id":9,"left_children":[1,3,5,7,9,11,13,15,17,19,21,23,25,27,29,-1,-1,-1,-1,-1,-1,-1,-1,-1,-1,-1,-1,-1,-1,-1,-1],"loss_changes":[2.8531523E3,4.200868E2,7.097572E2,8.7326416E1,8.343268E1,1.9671393E2,2.3899866E2,3.2788696E1,1.5814331E1,1.7939606E1,4.4056587E1,2.3386407E2,6.1169327E1,9.045068E1,7.944757E1,0E0,0E0,0E0,0E0,0E0,0E0,0E0,0E0,0E0,0E0,0E0,0E0,0E0,0E0,0E0,0E0],"parents":[2147483647,0,0,1,1,2,2,3,3,4,4,5,5,6,6,7,7,8,8,9,9,10,10,11,11,12,12,13,13,14,14],"right_children":[2,4,6,8,10,12,14,16,18,20,22,24,26,28,30,-1,-1,-1,-1,-1,-1,-1,-1,-1,-1,-1,-1,-1,-1,-1,-1],"split_conditions":[6.3292305E1,-9.075586E1,2.5529951E2,-2.0076675E2,-2.5534885E0,1.4721884E3,1.3328405E3,1.9E0,1E0,1.5132644E3,1.546593E3,2.25E0,4.6666665E0,5.705456E2,3.684797E2,-3.451502E-2,1.5958317E-2,-1.8192379E-2,-2.6065264E-2,-7.4658254E-3,-1.4673877E-2,4.001991E-3,-7.7133863E-3,2.0059172E-2,6.470293E-2,7.0361807E-3,8.556264E-2,6.7779206E-2,1.250277E-1,2.8345872E-2,6.298799E-2],"split_indices":[0,0,0,0,0,2,2,11,7,2,2,3,3,0,0,0,0,0,0,0,0,0,0,0,0,0,0,0,0,0,0],"split_type":[0,0,0,0,0,0,0,0,0,0,0,0,0,0,0,0,0,0,0,0,0,0,0,0,0,0,0,0,0,0,0],"sum_hessian":[2.026E4,1.2323E4,7.937E3,5.216E3,7.107E3,6.265E3,1.672E3,2.138E3,3.078E3,3.876E3,3.231E3,2.773E3,3.492E3,7.02E2,9.7E2,2.106E3,3.2E1,2.152E3,9.26E2,1.312E3,2.564E3,1.753E3,1.478E3,2.44E3,3.33E2,3.468E3,2.4E1,6.23E2,7.9E1,7.57E2,2.13E2],"tree_param":{"num_deleted":"0","num_feature":"14","num_nodes":"31","size_leaf_vector":"1"}},{"base_weights":[-1.4541905E-3,-2.3659706E-1,5.885606E-1,-4.3413606E-1,-1.8602846E-2,4.3303207E-1,1.243852E0,-6.523683E-1,-3.4623852E-1,1.0581809E-1,-1.17578305E-1,6.5089065E-1,2.8383687E-1,1.5740762E0,7.929878E-1,-3.985333E-2,-2.6429845E-2,-1.6761273E-2,-3.8752608E-2,9.701822E-2,4.8052236E-3,-2.4277363E-3,-1.2887008E-2,2.59228E-2,7.843482E-2,1.8805003E-2,3.0126795E-3,7.3169194E-2,1.8473212E-1,2.8663805E-2,6.161603E-2],"categories":[],"categories_nodes":[],"categories_segments":[],"categories_sizes":[],"default_left":[0,0,0,0,0,0,0,0,0,0,0,0,0,0,0,0,0,0,0,0,0,0,0,0,0,0,0,0,0,0,0],"id":10,"left_children":[1,3,5,7,9,11,13,15,17,19,21,23,25,27,29,-1,-1,-1,-1,-1,-1,-1,-1,-1,-1,-1,-1,-1,-1,-1,-1],"loss_changes":[2.8164807E3,6.2503986E2,5.8888074E2,1.4574585E2,8.500912E1,1.5174036E2,1.6362988E2,3.857837E1,2.5277344E1,5.410372E1,3.7155197E1,2.2992169E2,5.7239685E1,1.4407019E2,4.4576996E1,0E0,0E0,0E0,0E0,0E0,0E0,0E0,0E0,0E0,0E0,0E0,0E0,0E0,0E0,0E0,0E0],"parents":[2147483647,0,0,1,1,2,2,3,3,4,4,5,5,6,6,7,7,8,8,9,9,10,10,11,11,12,12,13,13,14,14],"right_children":[2,4,6,8,10,12,14,16,18,20,22,24,26,28,30,-1,-1,-1,-1,-1,-1,-1,-1,-1,-1,-1,-1,-1,-1,-1,-1],"split_conditions":[1.1158834E2,-3.320846E1,2.9879886E2,-1.9692087E2,1.509996E3,1.438849E3,1.3738818E3,1.3846805E3,4.2E0,2E-1,1E0,2.3333333E0,1E0,3.2E0,3.684797E2,-3.985333E-2,-2.6429845E-2,-1.6761273E-2,-3.8752608E-2,9.701822E-2,4.8052236E-3,-2.4277363E-3,-1.2887008E-2,2.59228E-2,7.843482E-2,1.8805003E-2,3.0126795E-3,7.3169194E-2,1.8473212E-1,2.8663805E-2,6.161603E-2],"split_indices":[0,0,0,0,2,2,2,1,4,4,7,3,7,3,0,0,0,0,0,0,0,0,0,0,0,0,0,0,0,0,0],"split_type":[0,0,0,0,0,0,0,0,0,0,0,0,0,0,0,0,0,0,0,0,0,0,0,0,0,0,0,0,0,0,0],"sum_hessian":[2.0299E4,1.4515E4,5.784E3,7.614E3,6.901E3,4.676E3,1.108E3,2.184E3,5.43E3,3.057E3,3.844E3,1.899E3,2.777E3,6.38E2,4.7E2,1.004E3,1.18E3,5.296E3,1.34E2,1.5E1,3.042E3,2.577E3,1.267E3,1.661E3,2.38E2,1.965E3,8.12E2,6.08E2,3E1,3.15E2,1.55E2],"tree_param":{"num_deleted":"0","num_feature":"14","num_nodes":"31","size_leaf_vector":"1"}},{"base_weights":[7.1187434E-3,-2.1926625E-1,5.707975E-1,-4.1331115E-1,-1.1104713E-2,4.3428487E-1,1.859341E0,-7.156269E-1,-3.65697E-1,-4.6010815E-2,1.9021554E0,3.3184892E-1,1.0806849E0,1.5122721E0,3.0072567E0,-3.6456995E-2,5.813118E-3,-1.8442338E-2,1.5357076E-1,-4.8550786E-3,1.2618631E-2,8.133712E-2,4.900857E-1,1.103486E-2,2.8266853E-2,4.2392127E-2,7.6042525E-2,4.2675123E-2,9.370025E-2,1.2828591E-1,2.8667185E-1],"categories":[],"categories_nodes":[],"categories_segments":[],"categories_sizes":[],"default_left":[0,0,0,0,0,0,0,0,0,0,0,0,0,0,0,0,0,0,0,0,0,0,0,0,0,0,0,0,0,0,0],"id":11,"left_children":[1,3,5,7,9,11,13,15,17,19,21,23,25,27,29,-1,-1,-1,-1,-1,-1,-1,-1,-1,-1,-1,-1,-1,-1,-1,-1],"loss_changes":[2.5865278E3,5.840716E2,1.02060486E3,1.0735864E2,4.659238E2,3.4732544E2,2.165138E2,1.1578491E1,7.088605E1,1.0449571E2,2.548675E2,1.1751764E2,7.206091E1,1.0035797E2,1.3853503E2,0E0,0E0,0E0,0E0,0E0,0E0,0E0,0E0,0E0,0E0,0E0,0E0,0E0,0E0,0E0,0E0],"parents":[2147483647,0,0,1,1,2,2,3,3,4,4,5,5,6,6,7,7,8,8,9,9,10,10,11,11,12,12,13,13,14,14],"right_children":[2,4,6,8,10,12,14,16,18,20,22,24,26,28,30,-1,-1,-1,-1,-1,-1,-1,-1,-1,-1,-1,-1,-1,-1,-1,-1],"split_conditions":[1.1158834E2,-3.5065674E1,3.2E0,-2.8483456E2,4.25E0,3.2346024E2,2.2E0,9E-1,8E0,2.2E0,4.2E0,1.6666666E0,4.2362326E2,1.4684716E3,6E0,-3.6456995E-2,5.813118E-3,-1.8442338E-2,1.5357076E-1,-4.8550786E-3,1.2618631E-2,8.133712E-2,4.900857E-1,1.103486E-2,2.8266853E-2,4.2392127E-2,7.6042525E-2,4.2675123E-2,9.370025E-2,1.2828591E-1,2.8667185E-1],"split_indices":[0,0,6,0,6,0,3,11,6,6,3,6,0,1,6,0,0,0,0,0,0,0,0,0,0,0,0,0,0,0,0],"split_type":[0,0,0,0,0,0,0,0,0,0,0,0,0,0,0,0,0,0,0,0,0,0,0,0,0,0,0,0,0,0,0],"sum_hessian":[2.0267E4,1.446E4,5.807E3,7.483E3,6.977E3,5.252E3,5.55E2,1.016E3,6.467E3,6.853E3,1.24E2,4.535E3,7.17E2,4.28E2,1.27E2,1E3,1.6E1,6.462E3,5E0,5.852E3,1.001E3,1.21E2,3E0,3.074E3,1.461E3,4.71E2,2.46E2,1.53E2,2.75E2,1.11E2,1.6E1],"tree_param":{"num_deleted":"0","num_feature":"14","num_nodes":"31","size_leaf_vector":"1"}},{"base_weights":[1.3311495E-3,-1.6682027E-1,6.274315E-1,-3.889583E-1,3.1466983E-2,4.9555427E-1,1.7288462E0,-5.949474E-1,-3.1975916E-1,-5.851694E-3,1.5880773E0,3.4702423E-1,9.7520477E-1,1.4307777E0,2.671903E0,-3.864125E-2,-2.673531E-2,-1.6443502E-2,2.3336763E-2,-3.4159955E-3,1.2434292E-2,6.695702E-2,2.6633367E-1,1.2241067E-2,2.6990637E-2,4.2458948E-2,9.131941E-2,6.724996E-2,1.5682255E-1,1.733226E-1,7.939311E-2],"categories":[],"categories_nodes":[],"categories_segments":[],"categories_sizes":[],"default_left":[0,0,0,0,0,0,0,0,0,0,0,0,0,0,0,0,0,0,0,0,0,0,0,0,0,0,0,0,0,0,0],"id":12,"left_children":[1,3,5,7,9,11,13,15,17,19,21,23,25,27,29,-1,-1,-1,-1,-1,-1,-1,-1,-1,-1,-1,-1,-1,-1,-1,-1],"loss_changes":[2.1368015E3,7.047582E2,6.230668E2,1.07281006E2,4.9126578E2,2.7302942E2,1.24789795E2,1.9772766E1,4.063275E1,1.3128943E2,1.7647388E2,5.7579865E1,9.547638E1,4.668817E1,8.787457E1,0E0,0E0,0E0,0E0,0E0,0E0,0E0,0E0,0E0,0E0,0E0,0E0,0E0,0E0,0E0,0E0],"parents":[2147483647,0,0,1,1,2,2,3,3,4,4,5,5,6,6,7,7,8,8,9,9,10,10,11,11,12,12,13,13,14,14],"right_children":[2,4,6,8,10,12,14,16,18,20,22,24,26,28,30,-1,-1,-1,-1,-1,-1,-1,-1,-1,-1,-1,-1,-1,-1,-1,-1],"split_conditions":[1.505569E2,-3.320846E1,3.2E0,-2.1361542E2,4E0,2.9879886E2,4.6666665E0,-3.709902E2,3.6666667E0,2E0,9.2E0,1.6666666E0,4.969756E2,5.705456E2,1.25E0,-3.864125E-2,-2.673531E-2,-1.6443502E-2,2.3336763E-2,-3.4159955E-3,1.2434292E-2,6.695702E-2,2.6633367E-1,1.2241067E-2,2.6990637E-2,4.2458948E-2,9.131941E-2,6.724996E-2,1.5682255E-1,1.733226E-1,7.939311E-2],"split_indices":[0,0,6,0,6,0,6,0,6,6,6,6,0,0,4,0,0,0,0,0,0,0,0,0,0,0,0,0,0,0,0],"split_type":[0,0,0,0,0,0,0,0,0,0,0,0,0,0,0,0,0,0,0,0,0,0,0,0,0,0,0,0,0,0,0],"sum_hessian":[2.0294E4,1.5998E4,4.296E3,7.545E3,8.453E3,3.838E3,4.58E2,1.895E3,5.65E3,8.256E3,1.97E2,2.932E3,9.06E2,3.5E2,1.08E2,4.76E2,1.419E3,5.586E3,6.4E1,6.63E3,1.626E3,1.86E2,1.1E1,1.918E3,1.014E3,7.91E2,1.15E2,3.35E2,1.5E1,6.1E1,4.7E1],"tree_param":{"num_deleted":"0","num_feature":"14","num_nodes":"31","size_leaf_vector":"1"}},{"base_weights":[4.0077482E-4,-2.5942376E-1,4.0508768E-1,-2.7093965E-1,2.269725E0,2.95602E-1,1.6295396E0,-4.8990664E-1,-1.7164318E-1,5.1746523E-1,3.6629198E0,1.7940837E-1,7.0322293E-1,1.4094396E0,3.8500535E0,-3.263654E-2,-2.1481276E-2,-1.2100367E-2,-2.5127295E-3,-1.5137548E-2,5.7290357E-2,2.1774967E-1,3.268341E-2,6.414085E-3,2.3672497E-2,2.9727096E-2,6.11314E-2,3.2345716E-2,7.859885E-2,1.5834503E-1,6.127946E-1],"categories":[],"categories_nodes":[],"categories_segments":[],"categories_sizes":[],"default_left":[0,0,0,0,0,0,0,0,0,0,0,0,0,0,0,0,0,0,0,0,0,0,0,0,0,0,0,0,0,0,0],"id":13,"left_children":[1,3,5,7,9,11,13,15,17,19,21,23,25,27,29,-1,-1,-1,-1,-1,-1,-1,-1,-1,-1,-1,-1,-1,-1,-1,-1],"loss_changes":[2.13062E3,3.5982306E2,1.0614829E3,2.6695825E2,1.343959E2,3.443037E2,3.117256E2,3.7223267E1,7.216765E1,1.3830982E1,6.1213745E1,8.4997986E1,9.014435E1,7.225696E1,2.927079E2,0E0,0E0,0E0,0E0,0E0,0E0,0E0,0E0,0E0,0E0,0E0,0E0,0E0,0E0,0E0,0E0],"parents":[2147483647,0,0,1,1,2,2,3,3,4,4,5,5,6,6,7,7,8,8,9,9,10,10,11,11,12,12,13,13,14,14],"right_children":[2,4,6,8,10,12,14,16,18,20,22,24,26,28,30,-1,-1,-1,-1,-1,-1,-1,-1,-1,-1,-1,-1,-1,-1,-1,-1],"split_conditions":[6.3292305E1,6E0,3.2E0,-1.3224152E2,1.3836978E3,2.4053189E2,6.2E0,-2.8483456E2,-7.912913E-1,-2.639017E1,1.6666666E0,2.2E0,2.25E0,1E0,4.4E0,-3.263654E-2,-2.1481276E-2,-1.2100367E-2,-2.5127295E-3,-1.5137548E-2,5.7290357E-2,2.1774967E-1,3.268341E-2,6.414085E-3,2.3672497E-2,2.9727096E-2,6.11314E-2,3.2345716E-2,7.859885E-2,1.5834503E-1,6.127946E-1],"split_indices":[0,6,6,0,2,0,6,0,0,0,3,6,6,12,3,0,0,0,0,0,0,0,0,0,0,0,0,0,0,0,0],"split_type":[0,0,0,0,0,0,0,0,0,0,0,0,0,0,0,0,0,0,0,0,0,0,0,0,0,0,0,0,0,0,0],"sum_hessian":[2.0261E4,1.2339E4,7.922E3,1.2284E4,5.5E1,7.273E3,6.49E2,3.831E3,8.453E3,2.5E1,3E1,5.661E3,1.612E3,5.92E2,5.7E1,1.032E3,2.799E3,5.35E3,3.103E3,1.1E1,1.4E1,2.4E1,6E0,4.824E3,8.37E2,1.335E3,2.77E2,1.05E2,4.87E2,5.4E1,3E0],"tree_param":{"num_deleted":"0","num_feature":"14","num_nodes":"31","size_leaf_vector":"1"}},{"base_weights":[-8.024326E-3,-2.5205353E-1,3.8952884E-1,-4.4180933E-1,-1.3693112E-1,2.8791836E-1,1.761591E0,-6.3758004E-1,-3.8710466E-1,-1.4660498E-1,3.01708E0,1.3635835E-1,6.342137E-1,1.3860755E0,2.9261036E0,-2.8289154E-2,-3.751261E-2,-1.9582076E-2,3.0927707E-2,-8.869591E-3,1.1439115E-2,1.0001097E-1,3.230554E-1,4.024958E-3,2.148625E-2,4.999805E-2,2.4736313E-2,9.047394E-2,3.917578E-2,2.673625E-1,1.1746857E-1],"categories":[],"categories_nodes":[],"categories_segments":[],"categories_sizes":[],"default_left":[0,0,0,0,0,0,0,0,0,0,0,0,0,0,0,0,0,0,0,0,0,0,0,0,0,0,0,0,0,0,0],"id":14,"left_children":[1,3,5,7,9,11,13,15,17,19,21,23,25,27,29,-1,-1,-1,-1,-1,-1,-1,-1,-1,-1,-1,-1,-1,-1,-1,-1],"loss_changes":[1.972682E3,2.7513037E2,1.0775303E3,5.059613E1,2.3948744E2,3.7783002E2,2.2858972E2,7.8327026E0,1.7196777E1,9.042264E1,7.028055E1,8.2030785E1,1.11185425E2,1.01648865E2,1.6679724E2,0E0,0E0,0E0,0E0,0E0,0E0,0E0,0E0,0E0,0E0,0E0,0E0,0E0,0E0,0E0,0E0],"parents":[2147483647,0,0,1,1,2,2,3,3,4,4,5,5,6,6,7,7,8,8,9,9,10,10,11,11,12,12,13,13,14,14],"right_children":[2,4,6,8,10,12,14,16,18,20,22,24,26,28,30,-1,-1,-1,-1,-1,-1,-1,-1,-1,-1,-1,-1,-1,-1,-1,-1],"split_conditions":[6.670764E1,-1.0337807E2,3.4E0,-2.8483456E2,7.8E0,2.127871E2,1.371105E3,2.3333333E0,4.2E0,2.5E0,1.48E1,2.2E0,1.323798E3,1.5E0,3.3333334E-1,-2.8289154E-2,-3.751261E-2,-1.9582076E-2,3.0927707E-2,-8.869591E-3,1.1439115E-2,1.0001097E-1,3.230554E-1,4.024958E-3,2.148625E-2,4.999805E-2,2.4736313E-2,9.047394E-2,3.917578E-2,2.673625E-1,1.1746857E-1],"split_indices":[0,0,6,0,6,0,2,4,6,6,6,6,2,4,5,0,0,0,0,0,0,0,0,0,0,0,0,0,0,0,0],"split_type":[0,0,0,0,0,0,0,0,0,0,0,0,0,0,0,0,0,0,0,0,0,0,0,0,0,0,0,0,0,0,0],"sum_hessian":[2.0332E4,1.2599E4,7.733E3,4.756E3,7.843E3,7.201E3,5.32E2,1.036E3,3.72E3,7.82E3,2.3E1,5.01E3,2.191E3,4.04E2,1.28E2,6.37E2,3.99E2,3.704E3,1.6E1,7.228E3,5.92E2,1.9E1,4E0,4.21E3,8E2,6.03E2,1.588E3,2.36E2,1.68E2,2.3E1,1.05E2],"tree_param":{"num_deleted":"0","num_feature":"14","num_nodes":"31","size_leaf_vector":"1"}},{"base_weights":[1.8781112E-4,-2.4778327E-1,3.2880348E-1,-2.6431456E-1,1.0851896E0,2.0462851E-1,1.0845836E0,-4.4533336E-1,-1.7584182E-1,3.275697E-1,2.7087798E0,9.2180416E-2,5.2771604E-1,9.7889E-1,3.9845023E0,-2.0857675E-2,-3.8176488E-2,-5.8675553E-3,-1.51182925E-2,1.3297907E-1,1.124395E-2,3.4808165E-1,1.0608162E-1,8.336142E-3,-4.181716E-3,2.1923501E-2,4.5672867E-2,1.3527709E-2,5.9257507E-2,1.4823611E-1,4.8811793E-1],"categories":[],"categories_nodes":[],"categories_segments":[],"categories_sizes":[],"default_left":[0,0,0,0,0,0,0,0,0,0,0,0,0,0,0,0,0,0,0,0,0,0,0,0,0,0,0,0,0,0,0],"id":15,"left_children":[1,3,5,7,9,11,13,15,17,19,21,23,25,27,29,-1,-1,-1,-1,-1,-1,-1,-1,-1,-1,-1,-1,-1,-1,-1,-1],"loss_changes":[1.6559907E3,2.5542273E2,8.1988934E2,1.8308984E2,1.7347816E2,2.7265933E2,3.7352112E2,3.323352E1,5.681006E1,2.2582108E1,9.6688965E1,7.303387E1,6.61817E1,1.7354065E2,2.2314673E2,0E0,0E0,0E0,0E0,0E0,0E0,0E0,0E0,0E0,0E0,0E0,0E0,0E0,0E0,0E0,0E0],"parents":[2147483647,0,0,1,1,2,2,3,3,4,4,5,5,6,6,7,7,8,8,9,9,10,10,11,11,12,12,13,13,14,14],"right_children":[2,4,6,8,10,12,14,16,18,20,22,24,26,28,30,-1,-1,-1,-1,-1,-1,-1,-1,-1,-1,-1,-1,-1,-1,-1,-1],"split_conditions":[4.6058037E1,4.2E0,2.5E0,-1.3224152E2,1.4117893E3,2.127871E2,6.5E0,3.25E0,1E0,-1.9692087E2,3E0,1E0,3.684797E2,1E0,2.8420047E2,-2.0857675E-2,-3.8176488E-2,-5.8675553E-3,-1.51182925E-2,1.3297907E-1,1.124395E-2,3.4808165E-1,1.0608162E-1,8.336142E-3,-4.181716E-3,2.1923501E-2,4.5672867E-2,1.3527709E-2,5.9257507E-2,1.4823611E-1,4.8811793E-1],"split_indices":[0,6,6,0,1,0,6,4,7,0,13,7,0,12,0,0,0,0,0,0,0,0,0,0,0,0,0,0,0,0,0],"split_type":[0,0,0,0,0,0,0,0,0,0,0,0,0,0,0,0,0,0,0,0,0,0,0,0,0,0,0,0,0,0,0],"sum_hessian":[2.032E4,1.1581E4,8.739E3,1.144E4,1.41E2,7.507E3,1.232E3,3.754E3,7.686E3,9.7E1,4.4E1,5.57E3,1.937E3,1.19E3,4.2E1,3.451E3,3.03E2,5.258E3,2.428E3,3E0,9.4E1,4E0,4E1,3.912E3,1.658E3,1.575E3,3.62E2,2.69E2,9.21E2,3.7E1,5E0],"tree_param":{"num_deleted":"0","num_feature":"14","num_nodes":"31","size_leaf_vector":"1"}},{"base_weights":[4.940034E-3,-2.3856297E-1,3.275924E-1,-2.5487283E-1,1.0369016E0,2.4625853E-1,1.512125E0,-4.0325916E-1,-1.6158044E-1,2.766627E-1,2.4039361E0,1.1821956E-1,6.248674E-1,6.9262314E-1,1.9941243E0,-2.8728956E-2,-1.8199021E-2,-9.2657525E-3,5.697713E-3,1.2799235E-1,8.664983E-3,8.436858E-2,2.8144628E-1,9.280934E-3,-1.8813949E-3,2.7929366E-2,7.944864E-2,3.1152561E-2,1.4629827E-1,8.369895E-2,2.1896385E-1],"categories":[],"categories_nodes":[],"categories_segments":[],"categories_sizes":[],"default_left":[0,0,0,0,0,0,0,0,0,0,0,0,0,0,0,0,0,0,0,0,0,0,0,0,0,0,0,0,0,0,0],"id":16,"left_children":[1,3,5,7,9,11,13,15,17,19,21,23,25,27,29,-1,-1,-1,-1,-1,-1,-1,-1,-1,-1,-1,-1,-1,-1,-1,-1],"loss_changes":[1.5928723E3,2.4053992E2,8.3955963E2,1.5781677E2,1.5080067E2,3.9547003E2,2.1954968E2,2.9325806E1,4.5852005E1,2.1702766E1,1.09937775E2,6.409606E1,1.306615E2,3.0296059E1,2.6084973E2,0E0,0E0,0E0,0E0,0E0,0E0,0E0,0E0,0E0,0E0,0E0,0E0,0E0,0E0,0E0,0E0],"parents":[2147483647,0,0,1,1,2,2,3,3,4,4,5,5,6,6,7,7,8,8,9,9,10,10,11,11,12,12,13,13,14,14],"right_children":[2,4,6,8,10,12,14,16,18,20,22,24,26,28,30,-1,-1,-1,-1,-1,-1,-1,-1,-1,-1,-1,-1,-1,-1,-1,-1],"split_conditions":[4.6058037E1,4.2E0,3.4E0,-1.1259755E2,1.4117893E3,2.2034697E2,1.4684716E3,1.298252E3,2.5E0,-1.9692087E2,9.2E0,1E0,4.969756E2,2.25E0,6E0,-2.8728956E-2,-1.8199021E-2,-9.2657525E-3,5.697713E-3,1.2799235E-1,8.664983E-3,8.436858E-2,2.8144628E-1,9.280934E-3,-1.8813949E-3,2.7929366E-2,7.944864E-2,3.1152561E-2,1.4629827E-1,8.369895E-2,2.1896385E-1],"split_indices":[0,6,6,0,1,0,1,1,3,0,6,7,0,5,6,0,0,0,0,0,0,0,0,0,0,0,0,0,0,0,0],"split_type":[0,0,0,0,0,0,0,0,0,0,0,0,0,0,0,0,0,0,0,0,0,0,0,0,0,0,0,0,0,0,0],"sum_hessian":[2.0272E4,1.1553E4,8.719E3,1.1408E4,1.45E2,8.16E3,5.59E2,4.402E3,7.006E3,9.4E1,5.1E1,6.099E3,2.061E3,2.08E2,3.51E2,8.18E2,3.584E3,6.451E3,5.55E2,3E0,9.1E1,4.3E1,8E0,4.258E3,1.841E3,1.93E3,1.31E2,2.03E2,5E0,3.11E2,4E1],"tree_param":{"num_deleted":"0","num_feature":"14","num_nodes":"31","size_leaf_vector":"1"}},{"base_weights":[-1.4922833E-3,-6.619816E-2,7.9621226E-1,9.620986E-2,-1.7299747E-1,7.6269877E-1,7.91188E0,-3.421109E-2,3.591176E-1,-4.281035E-2,-3.0720752E-1,1.2002617E0,4.7212446E-1,5.295221E-1,1.6151737E-1,1.3872883E-2,-5.477731E-3,1.1936781E-2,3.5192862E-2,1.2545957E-3,-9.2830025E-3,-1.7093314E-2,-5.7922374E-3,5.3953506E-2,2.3370221E-1,-1.3591642E-3,3.29543E-2],"categories":[],"categories_nodes":[],"categories_segments":[],"categories_sizes":[],"default_left":[0,0,0,0,0,0,0,0,0,0,0,0,0,0,0,0,0,0,0,0,0,0,0,0,0,0,0],"id":17,"left_children":[1,3,5,7,9,11,13,15,17,19,21,23,25,-1,-1,-1,-1,-1,-1,-1,-1,-1,-1,-1,-1,-1,-1],"loss_changes":[1.0450007E3,3.2486273E2,3.5533533E2,2.5480966E2,1.9737274E2,1.9163574E2,5.2185547E1,1.1664981E2,1.0199481E2,5.566857E1,3.6810608E1,2.4824011E2,8.512419E1,0E0,0E0,0E0,0E0,0E0,0E0,0E0,0E0,0E0,0E0,0E0,0E0,0E0,0E0],"parents":[2147483647,0,0,1,1,2,2,3,3,4,4,5,5,6,6,7,7,8,8,9,9,10,10,11,11,12,12],"right_children":[2,4,6,8,10,12,14,16,18,20,22,24,26,-1,-1,-1,-1,-1,-1,-1,-1,-1,-1,-1,-1,-1,-1],"split_conditions":[2.6666667E0,1.5212197E3,5.6666665E0,1.6E0,6E0,1.3333334E0,1.3862445E3,6E0,2E0,1E0,2E0,6.2E0,6.666667E-1,5.295221E-1,1.6151737E-1,1.3872883E-2,-5.477731E-3,1.1936781E-2,3.5192862E-2,1.2545957E-3,-9.2830025E-3,-1.7093314E-2,-5.7922374E-3,5.3953506E-2,2.3370221E-1,-1.3591642E-3,3.29543E-2],"split_indices":[6,2,3,3,8,4,2,8,6,7,3,6,3,0,0,0,0,0,0,0,0,0,0,0,0,0,0],"split_type":[0,0,0,0,0,0,0,0,0,0,0,0,0,0,0,0,0,0,0,0,0,0,0,0,0,0,0],"sum_hessian":[2.0245E4,1.8727E4,1.518E3,7.429E3,1.1298E4,1.512E3,6E0,4.966E3,2.463E3,5.736E3,5.562E3,6.02E2,9.1E2,3E0,3E0,9.66E2,4E3,1.827E3,6.36E2,3.888E3,1.848E3,4.708E3,8.54E2,5.83E2,1.9E1,2.48E2,6.62E2],"tree_param":{"num_deleted":"0","num_feature":"14","num_nodes":"27","size_leaf_vector":"1"}},{"base_weights":[-3.7375125E-3,-2.3534398E-1,2.7018782E-1,-2.4206169E-1,2.318812E0,2.0225538E-1,1.3058084E0,-4.5208558E-1,-1.9195113E-1,2.9782865E0,2.029051E-1,1.236951E-1,6.434609E-1,6.213869E-1,1.7679851E0,-3.0743862E-2,-2.0172903E-2,-7.2867707E-3,-1.4772539E-2,1.4370953E-2,2.1040983E-1,9.591078E-2,-5.949622E-2,3.8494633E-3,1.8616876E-2,2.481557E-2,6.023209E-2,1.3771948E-2,4.511196E-2,7.607865E-2,1.744731E-1],"categories":[],"categories_nodes":[],"categories_segments":[],"categories_sizes":[],"default_left":[0,0,0,0,0,0,0,0,0,0,0,0,0,0,0,0,0,0,0,0,0,0,0,0,0,0,0,0,0,0,0],"id":18,"left_children":[1,3,5,7,9,11,13,15,17,19,21,23,25,27,29,-1,-1,-1,-1,-1,-1,-1,-1,-1,-1,-1,-1,-1,-1,-1,-1],"loss_changes":[1.291884E3,1.8967603E2,6.5590106E2,1.1568054E2,3.9543777E1,3.0333746E2,1.8023218E2,1.6424438E1,4.242691E1,7.115051E1,2.1468441E1,8.625781E1,1.08481995E2,2.2272064E1,1.392633E2,0E0,0E0,0E0,0E0,0E0,0E0,0E0,0E0,0E0,0E0,0E0,0E0,0E0,0E0,0E0,0E0],"parents":[2147483647,0,0,1,1,2,2,3,3,4,4,5,5,6,6,7,7,8,8,9,9,10,10,11,11,12,12,13,13,14,14],"right_children":[2,4,6,8,10,12,14,16,18,20,22,24,26,28,30,-1,-1,-1,-1,-1,-1,-1,-1,-1,-1,-1,-1,-1,-1,-1,-1],"split_conditions":[3.4964207E1,7.2E0,3.4E0,-2.0076675E2,1.6666666E0,2.657775E2,1.4684716E3,1.2573638E3,1E0,5E-1,1.4321549E3,2.2E0,2.25E0,1E0,5.8E0,-3.0743862E-2,-2.0172903E-2,-7.2867707E-3,-1.4772539E-2,1.4370953E-2,2.1040983E-1,9.591078E-2,-5.949622E-2,3.8494633E-3,1.8616876E-2,2.481557E-2,6.023209E-2,1.3771948E-2,4.511196E-2,7.607865E-2,1.744731E-1],"split_indices":[0,6,6,0,3,0,1,1,7,3,1,6,6,3,6,0,0,0,0,0,0,0,0,0,0,0,0,0,0,0,0],"split_type":[0,0,0,0,0,0,0,0,0,0,0,0,0,0,0,0,0,0,0,0,0,0,0,0,0,0,0,0,0,0,0],"sum_hessian":[2.0361E4,1.1033E4,9.328E3,1.1005E4,2.8E1,8.755E3,5.73E2,2.118E3,8.887E3,2.1E1,7E0,7.433E3,1.322E3,2.32E2,3.41E2,4.84E2,1.634E3,6.146E3,2.741E3,7E0,1.4E1,3E0,4E0,6.259E3,1.174E3,1.049E3,2.73E2,1.05E2,1.27E2,3E2,4.1E1],"tree_param":{"num_deleted":"0","num_feature":"14","num_nodes":"31","size_leaf_vector":"1"}},{"base_weights":[3.1389045E-3,-2.984622E-2,1.2797813E0,1.20148815E-1,-1.7189017E-1,1.1810503E0,4.704523E-1,-1.1250494E-1,2.806214E-1,-4.1148058E-1,-1.1278667E-1,5.680579E-1,2.1534255E0,4.4584223E-3,-1.0757529E-2,3.5222467E-2,9.850938E-3,-3.371932E-2,-1.8776849E-2,-8.807373E-3,1.9573842E-3,2.246521E-2,1.2418914E-1,1.143189E-1,-1.4067701E-2],"categories":[],"categories_nodes":[],"categories_segments":[],"categories_sizes":[],"default_left":[0,0,0,0,0,0,0,0,0,0,0,0,0,0,0,0,0,0,0,0,0,0,0,0,0],"id":19,"left_children":[1,3,5,7,9,11,-1,13,15,17,19,21,23,-1,-1,-1,-1,-1,-1,-1,-1,-1,-1,-1,-1],"loss_changes":[8.5769543E2,4.229903E2,3.995678E2,3.605508E2,1.4429712E2,3.013023E2,0E0,8.163472E1,2.0227151E2,1.8701965E1,7.877645E1,6.979806E1,6.4290955E1,0E0,0E0,0E0,0E0,0E0,0E0,0E0,0E0,0E0,0E0,0E0,0E0],"parents":[2147483647,0,0,1,1,2,2,3,3,4,4,5,5,7,7,8,8,9,9,10,10,11,11,12,12],"right_children":[2,4,6,8,10,12,-1,14,16,18,20,22,24,-1,-1,-1,-1,-1,-1,-1,-1,-1,-1,-1,-1],"split_conditions":[4E0,1.546593E3,5.6666665E0,1.472046E3,1.4843518E3,1.4829601E3,4.704523E-1,1.3681882E3,1.3644974E3,1.2573638E3,1.7369342E3,9E0,2E0,4.4584223E-3,-1.0757529E-2,3.5222467E-2,9.850938E-3,-3.371932E-2,-1.8776849E-2,-8.807373E-3,1.9573842E-3,2.246521E-2,1.2418914E-1,1.143189E-1,-1.4067701E-2],"split_indices":[6,2,3,1,1,1,0,2,2,1,1,6,5,0,0,0,0,0,0,0,0,0,0,0,0],"split_type":[0,0,0,0,0,0,0,0,0,0,0,0,0,0,0,0,0,0,0,0,0,0,0,0,0],"sum_hessian":[2.0363E4,1.9851E4,5.12E2,9.655E3,1.0196E4,5.07E2,5E0,3.941E3,5.714E3,2.016E3,8.18E3,3.12E2,1.95E2,1.329E3,2.612E3,9.4E2,4.774E3,2.4E2,1.776E3,5.773E3,2.407E3,2.95E2,1.7E1,1.85E2,1E1],"tree_param":{"num_deleted":"0","num_feature":"14","num_nodes":"25","size_leaf_vector":"1"}},{"base_weights":[1.0584326E-3,-2.131008E-1,2.7365336E-1,-2.2460406E-1,7.710705E-1,2.0190148E-1,1.3256509E0,-3.625267E-1,-1.5948814E-1,1.3307606E-1,2.0713131E0,1.4844863E-1,6.953457E-1,2.8425995E-1,1.5777519E0,-1.6806345E-2,-3.252956E-2,-1.077001E-2,-5.304667E-3,1.2240299E-1,1.1346104E-3,3.6365527E-1,7.4842565E-2,4.941355E-3,2.041667E-2,3.1049797E-2,7.927538E-2,3.7766974E-2,-2.0958947E-3,7.072076E-2,1.751928E-1],"categories":[],"categories_nodes":[],"categories_segments":[],"categories_sizes":[],"default_left":[0,0,0,0,0,0,0,0,0,0,0,0,0,0,0,0,0,0,0,0,0,0,0,0,0,0,0,0,0,0,0],"id":20,"left_children":[1,3,5,7,9,11,13,15,17,19,21,23,25,27,29,-1,-1,-1,-1,-1,-1,-1,-1,-1,-1,-1,-1,-1,-1,-1,-1],"loss_changes":[1.1808906E3,1.2836469E2,6.7137646E2,1.004588E2,1.0817466E2,2.1960364E2,1.484856E2,2.698407E1,2.266101E1,2.2440151E1,1.1673024E2,9.6885956E1,5.266797E1,1.7312443E1,1.3832593E2,0E0,0E0,0E0,0E0,0E0,0E0,0E0,0E0,0E0,0E0,0E0,0E0,0E0,0E0,0E0,0E0],"parents":[2147483647,0,0,1,1,2,2,3,3,4,4,5,5,6,6,7,7,8,8,9,9,10,10,11,11,12,12,13,13,14,14],"right_children":[2,4,6,8,10,12,14,16,18,20,22,24,26,28,30,-1,-1,-1,-1,-1,-1,-1,-1,-1,-1,-1,-1,-1,-1,-1,-1],"split_conditions":[4.2863144E1,4.2E0,3.4E0,-1.3852925E2,1.4117893E3,3.1505408E2,1.3908856E3,3.25E0,-3.8487976E1,-1.9692087E2,3E0,2.2E0,5.705456E2,9.2624886E1,6.2E0,-1.6806345E-2,-3.252956E-2,-1.077001E-2,-5.304667E-3,1.2240299E-1,1.1346104E-3,3.6365527E-1,7.4842565E-2,4.941355E-3,2.041667E-2,3.1049797E-2,7.927538E-2,3.7766974E-2,-2.0958947E-3,7.072076E-2,1.751928E-1],"split_indices":[0,6,6,0,1,0,1,4,0,0,13,6,0,0,6,0,0,0,0,0,0,0,0,0,0,0,0,0,0,0,0],"split_type":[0,0,0,0,0,0,0,0,0,0,0,0,0,0,0,0,0,0,0,0,0,0,0,0,0,0,0,0,0,0,0],"sum_hessian":[2.0226E4,1.1327E4,8.899E3,1.1197E4,1.3E2,8.332E3,5.67E2,3.589E3,7.608E3,8.8E1,4.2E1,7.519E3,8.13E2,1.11E2,4.56E2,3.29E3,2.99E2,3.714E3,3.894E3,3E0,8.5E1,3E0,3.9E1,6.315E3,1.204E3,7.52E2,6.1E1,4.5E1,6.6E1,4.22E2,3.4E1],"tree_param":{"num_deleted":"0","num_feature":"14","num_nodes":"31","size_leaf_vector":"1"}},{"base_weights":[-2.9521675E-3,-1.3720286E-1,3.7174848E-1,-1.5529755E-1,9.227769E-1,2.6051924E-1,9.1033477E-1,-2.6878515E-1,-3.4914996E-2,3.6997938E-1,1.7049313E0,1.5072528E-1,4.061118E-1,6.4144707E-1,1.6240575E0,-2.2963336E-2,-1.1924388E-2,1.7544676E-3,-9.503303E-3,3.2354712E-2,-1.033632E-2,1.0753848E-1,-2.502306E-3,3.1806056E-3,1.4750734E-2,1.8717322E-2,5.8446344E-2,2.9191334E-2,1.23996E-1,7.131561E-2,1.9158508E-1],"categories":[],"categories_nodes":[],"categories_segments":[],"categories_sizes":[],"default_left":[0,0,0,0,0,0,0,0,0,0,0,0,0,0,0,0,0,0,0,0,0,0,0,0,0,0,0,0,0,0,0],"id":21,"left_children":[1,3,5,7,9,11,13,15,17,19,21,23,25,27,29,-1,-1,-1,-1,-1,-1,-1,-1,-1,-1,-1,-1,-1,-1,-1,-1],"loss_changes":[1.0256218E3,2.8797763E2,3.2182318E2,2.0161032E2,1.08119705E2,7.116107E1,1.7528998E2,4.3663757E1,7.783216E1,2.3990057E1,8.169107E1,3.1922188E1,4.583487E1,6.922131E1,1.03583435E2,0E0,0E0,0E0,0E0,0E0,0E0,0E0,0E0,0E0,0E0,0E0,0E0,0E0,0E0,0E0,0E0],"parents":[2147483647,0,0,1,1,2,2,3,3,4,4,5,5,6,6,7,7,8,8,9,9,10,10,11,11,12,12,13,13,14,14],"right_children":[2,4,6,8,10,12,14,16,18,20,22,24,26,28,30,-1,-1,-1,-1,-1,-1,-1,-1,-1,-1,-1,-1,-1,-1,-1,-1],"split_conditions":[1.2112955E2,4E0,2.5E0,-3.320846E1,1.4117893E3,2.127871E2,2E0,-2.8483456E2,1E0,3.25E0,3.5E0,1.25E0,2.25E0,2E0,6E0,-2.2963336E-2,-1.1924388E-2,1.7544676E-3,-9.503303E-3,3.2354712E-2,-1.033632E-2,1.0753848E-1,-2.502306E-3,3.1806056E-3,1.4750734E-2,1.8717322E-2,5.8446344E-2,2.9191334E-2,1.23996E-1,7.131561E-2,1.9158508E-1],"split_indices":[0,6,6,0,1,0,3,0,7,4,4,5,5,5,6,0,0,0,0,0,0,0,0,0,0,0,0,0,0,0,0],"split_type":[0,0,0,0,0,0,0,0,0,0,0,0,0,0,0,0,0,0,0,0,0,0,0,0,0,0,0,0,0,0,0],"sum_hessian":[2.0387E4,1.501E4,5.377E3,1.4759E4,2.51E2,4.458E3,9.19E2,7.596E3,7.163E3,1.48E2,1.03E2,2.543E3,1.915E3,6.69E2,2.5E2,1.04E3,6.556E3,4.936E3,2.227E3,1E2,4.8E1,8.2E1,2.1E1,1.587E3,9.56E2,1.84E3,7.5E1,6.5E2,1.9E1,2.31E2,1.9E1],"tree_param":{"num_deleted":"0","num_feature":"14","num_nodes":"31","size_leaf_vector":"1"}},{"base_weights":[4.184476E-3,-1.09253325E-1,4.1987574E-1,-1.172206E-1,2.5301027E0,2.4552844E-1,7.4481344E-1,-2.4863008E-1,1.0484081E-3,1.2059216E0,3.3526378E0,2.0016411E-1,7.506464E-1,6.1364496E-1,1.5964727E0,-1.8006854E-2,-9.470376E-3,-1.6456264E-3,1.6582064E-2,8.2311004E-2,-4.7091354E-2,2.8780693E-1,1.0790775E-1,-4.6165143E-3,1.1911118E-2,-2.4129208E-2,4.1012265E-2,2.1872303E-2,4.8260998E-2,5.513546E-2,1.01181045E-1],"categories":[],"categories_nodes":[],"categories_segments":[],"categories_sizes":[],"default_left":[0,0,0,0,0,0,0,0,0,0,0,0,0,0,0,0,0,0,0,0,0,0,0,0,0,0,0,0,0,0,0],"id":22,"left_children":[1,3,5,7,9,11,13,15,17,19,21,23,25,27,29,-1,-1,-1,-1,-1,-1,-1,-1,-1,-1,-1,-1,-1,-1,-1,-1],"loss_changes":[9.572312E2,3.3539685E2,2.4626752E2,2.4713753E2,4.7781982E1,6.4693924E1,1.684881E2,4.961612E1,9.400159E1,2.0533903E1,7.004321E1,2.9001595E1,2.042833E1,8.108386E1,4.0059753E1,0E0,0E0,0E0,0E0,0E0,0E0,0E0,0E0,0E0,0E0,0E0,0E0,0E0,0E0,0E0,0E0],"parents":[2147483647,0,0,1,1,2,2,3,3,4,4,5,5,6,6,7,7,8,8,9,9,10,10,11,11,12,12,13,13,14,14],"right_children":[2,4,6,8,10,12,14,16,18,20,22,24,26,28,30,-1,-1,-1,-1,-1,-1,-1,-1,-1,-1,-1,-1,-1,-1,-1,-1],"split_conditions":[1.4860237E2,7.2E0,2E0,-3.5065674E1,1.3836978E3,3.684797E2,2.5E0,-1.7847266E2,2.5E0,1.4522958E3,1.4200665E3,2E0,1.6039878E3,2.9879886E2,2.5E0,-1.8006854E-2,-9.470376E-3,-1.6456264E-3,1.6582064E-2,8.2311004E-2,-4.7091354E-2,2.8780693E-1,1.0790775E-1,-4.6165143E-3,1.1911118E-2,-2.4129208E-2,4.1012265E-2,2.1872303E-2,4.8260998E-2,5.513546E-2,1.01181045E-1],"split_indices":[0,6,6,0,2,0,3,0,6,1,2,9,1,0,6,0,0,0,0,0,0,0,0,0,0,0,0,0,0,0,0],"split_type":[0,0,0,0,0,0,0,0,0,0,0,0,0,0,0,0,0,0,0,0,0,0,0,0,0,0,0,0,0,0,0],"sum_hessian":[2.0297E4,1.5946E4,4.351E3,1.5899E4,4.7E1,2.833E3,1.518E3,7.531E3,8.368E3,1.9E1,2.8E1,2.601E3,2.32E2,1.317E3,2.01E2,2.61E3,4.921E3,7.589E3,7.79E2,1.6E1,3E0,8E0,2E1,2.99E2,2.302E3,1.2E1,2.2E2,8.79E2,4.38E2,9.5E1,1.06E2],"tree_param":{"num_deleted":"0","num_feature":"14","num_nodes":"31","size_leaf_vector":"1"}},{"base_weights":[4.239203E-3,-1.7561E-1,2.3226942E-1,-1.796228E-1,3.0755646E0,1.6798091E-1,1.0043708E0,-2.8743702E-1,-1.0995181E-1,1.092433E-3,4.284866E0,1.2392554E-1,6.2738436E-1,-1.846961E-2,1.2320818E0,-1.3306044E-2,-2.7646909E-2,-6.460593E-3,6.236493E-3,2.668887E-1,6.730307E-2,-1.1018947E-3,1.022152E-2,2.4295142E-2,4.545426E-2,3.5891544E-2,-2.2603264E-2,5.2227654E-2,1.0283279E-1],"categories":[],"categories_nodes":[],"categories_segments":[],"categories_sizes":[],"default_left":[0,0,0,0,0,0,0,0,0,0,0,0,0,0,0,0,0,0,0,0,0,0,0,0,0,0,0,0,0],"id":23,"left_children":[1,3,5,7,9,11,13,15,17,-1,19,21,23,25,27,-1,-1,-1,-1,-1,-1,-1,-1,-1,-1,-1,-1,-1,-1],"loss_changes":[8.316686E2,1.4816852E2,4.4357037E2,8.498917E1,5.1175797E1,1.6694188E2,1.601546E2,2.49216E1,3.1118538E1,0E0,2.3089539E1,8.856475E1,2.8194397E1,4.0524273E1,8.44444E1,0E0,0E0,0E0,0E0,0E0,0E0,0E0,0E0,0E0,0E0,0E0,0E0,0E0,0E0],"parents":[2147483647,0,0,1,1,2,2,3,3,4,4,5,5,6,6,7,7,8,8,10,10,11,11,12,12,13,13,14,14],"right_children":[2,4,6,8,10,12,14,16,18,-1,20,22,24,26,28,-1,-1,-1,-1,-1,-1,-1,-1,-1,-1,-1,-1,-1,-1],"split_conditions":[3.9888737E1,9E0,3.2E0,-1.1259755E2,1E0,3.2346024E2,1E0,3.25E0,2.5E0,1.092433E-3,2E-1,1E0,4.2362326E2,1.2E0,5.3333335E0,-1.3306044E-2,-2.7646909E-2,-6.460593E-3,6.236493E-3,2.668887E-1,6.730307E-2,-1.1018947E-3,1.022152E-2,2.4295142E-2,4.545426E-2,3.5891544E-2,-2.2603264E-2,5.2227654E-2,1.0283279E-1],"split_indices":[0,6,6,0,3,0,12,4,3,0,5,12,0,3,6,0,0,0,0,0,0,0,0,0,0,0,0,0,0],"split_type":[0,0,0,0,0,0,0,0,0,0,0,0,0,0,0,0,0,0,0,0,0,0,0,0,0,0,0,0,0],"sum_hessian":[2.0277E4,1.1336E4,8.941E3,1.1323E4,1.3E1,8.255E3,6.86E2,4.443E3,6.88E3,4E0,9E0,7.534E3,7.21E2,1.25E2,5.61E2,4.115E3,3.28E2,6.359E3,5.21E2,6E0,3E0,2.678E3,4.856E3,4.82E2,2.39E2,4.6E1,7.9E1,4.59E2,1.02E2],"tree_param":{"num_deleted":"0","num_feature":"14","num_nodes":"29","size_leaf_vector":"1"}},{"base_weights":[-3.3071397E-3,-1.3823815E-1,2.6087293E-1,-2.5823936E-1,-6.496963E-2,2.1862482E-1,9.518279E-1,-4.2734876E-1,-2.2945598E-1,-9.187392E-2,2.211625E-1,3.4236107E-2,3.09156E-1,7.86924E-1,1.5630084E0,-2.4560006E-2,-1.1253043E-2,-9.412645E-3,-1.6946383E-2,3.2201886E-5,-7.382697E-3,2.2258404E-1,9.853988E-3,-1.970056E-3,1.0589925E-2,-2.317446E-3,1.8927913E-2,2.5960509E-2,5.733003E-2,9.96437E-2,1.3798903E-2],"categories":[],"categories_nodes":[],"categories_segments":[],"categories_sizes":[],"default_left":[0,0,0,0,0,0,0,0,0,0,0,0,0,0,0,0,0,0,0,0,0,0,0,0,0,0,0,0,0,0,0],"id":24,"left_children":[1,3,5,7,9,11,13,15,17,19,21,23,25,27,29,-1,-1,-1,-1,-1,-1,-1,-1,-1,-1,-1,-1,-1,-1,-1,-1],"loss_changes":[7.254216E2,1.1839215E2,2.0051263E2,2.468991E1,6.4410385E1,1.0820871E2,3.844635E1,9.388855E0,1.957663E1,3.9483475E1,7.1911255E1,2.796729E1,1.07352936E2,2.9473267E1,4.5142853E1,0E0,0E0,0E0,0E0,0E0,0E0,0E0,0E0,0E0,0E0,0E0,0E0,0E0,0E0,0E0,0E0],"parents":[2147483647,0,0,1,1,2,2,3,3,4,4,5,5,6,6,7,7,8,8,9,9,10,10,11,11,12,12,13,13,14,14],"right_children":[2,4,6,8,10,12,14,16,18,20,22,24,26,28,30,-1,-1,-1,-1,-1,-1,-1,-1,-1,-1,-1,-1,-1,-1,-1,-1],"split_conditions":[8.546932E1,-9.515775E1,4.003289E2,-3.257915E2,2.5E0,1E0,5.705456E2,1.415694E3,1E0,1.5012438E3,2E-1,1.7516796E3,6E0,1.5E0,1.235178E3,-2.4560006E-2,-1.1253043E-2,-9.412645E-3,-1.6946383E-2,3.2201886E-5,-7.382697E-3,2.2258404E-1,9.853988E-3,-1.970056E-3,1.0589925E-2,-2.317446E-3,1.8927913E-2,2.5960509E-2,5.733003E-2,9.96437E-2,1.3798903E-2],"split_indices":[0,0,0,0,3,12,0,1,7,2,5,1,9,12,2,0,0,0,0,0,0,0,0,0,0,0,0,0,0,0,0],"split_type":[0,0,0,0,0,0,0,0,0,0,0,0,0,0,0,0,0,0,0,0,0,0,0,0,0,0,0,0,0,0,0],"sum_hessian":[2.0349E4,1.347E4,6.879E3,5.105E3,8.365E3,6.484E3,3.95E2,7.4E2,4.365E3,7.647E3,7.18E2,2.136E3,4.348E3,3.13E2,8.2E1,5.61E2,1.79E2,3.174E3,1.191E3,2.876E3,4.771E3,3E0,7.15E2,1.51E3,6.26E2,7.1E2,3.638E3,1.81E2,1.32E2,6.1E1,2.1E1],"tree_param":{"num_deleted":"0","num_feature":"14","num_nodes":"31","size_leaf_vector":"1"}},{"base_weights":[1.246189E-2,-4.329734E-2,5.46607E-1,6.9085024E-2,-1.1401095E-1,5.2337044E-1,6.0018926E0,-1.8380122E-1,1.5995906E-1,-1.6141428E-1,5.4653015E-2,3.392819E-2,7.207787E-1,-5.622406E-2,5.261306E-1,-1.7102664E-2,-6.25659E-3,6.7354636E-3,4.2989865E-2,-8.706621E-3,1.355474E-2,1.4436945E-2,-3.1823446E-3,8.893122E-3,-1.5369996E-2,2.7133126E-2,7.8027464E-2],"categories":[],"categories_nodes":[],"categories_segments":[],"categories_sizes":[],"default_left":[0,0,0,0,0,0,0,0,0,0,0,0,0,0,0,0,0,0,0,0,0,0,0,0,0,0,0],"id":25,"left_children":[1,3,5,7,9,11,13,15,17,19,21,23,25,-1,-1,-1,-1,-1,-1,-1,-1,-1,-1,-1,-1,-1,-1],"loss_changes":[6.0277325E2,1.4563252E2,2.3870215E2,1.626621E2,8.9949875E1,1.8405768E2,2.7050305E2,1.7281883E1,9.179639E1,4.833922E1,6.8385574E1,2.701344E1,2.0206805E2,0E0,0E0,0E0,0E0,0E0,0E0,0E0,0E0,0E0,0E0,0E0,0E0,0E0,0E0],"parents":[2147483647,0,0,1,1,2,2,3,3,4,4,5,5,6,6,7,7,8,8,9,9,10,10,11,11,12,12],"right_children":[2,4,6,8,10,12,14,16,18,20,22,24,26,-1,-1,-1,-1,-1,-1,-1,-1,-1,-1,-1,-1,-1,-1],"split_conditions":[2.5E0,1.5212197E3,5.6666665E0,1.4180493E3,1.7397747E3,1.3961669E3,4.75E0,5E-1,1.8013667E3,5.4E-1,1.6578839E3,1.3E0,4.25E0,-5.622406E-2,5.261306E-1,-1.7102664E-2,-6.25659E-3,6.7354636E-3,4.2989865E-2,-8.706621E-3,1.355474E-2,1.4436945E-2,-3.1823446E-3,8.893122E-3,-1.5369996E-2,2.7133126E-2,7.8027464E-2],"split_indices":[6,2,3,1,1,1,6,3,1,11,2,12,6,0,0,0,0,0,0,0,0,0,0,0,0,0,0],"split_type":[0,0,0,0,0,0,0,0,0,0,0,0,0,0,0,0,0,0,0,0,0,0,0,0,0,0,0],"sum_hessian":[2.0235E4,1.8323E4,1.912E3,7.076E3,1.1247E4,1.905E3,7E0,1.87E3,5.206E3,8.78E3,2.467E3,5.48E2,1.357E3,3E0,4E0,5.04E2,1.366E3,5.026E3,1.8E2,8.53E3,2.5E2,8.28E2,1.639E3,3.86E2,1.62E2,1.121E3,2.36E2],"tree_param":{"num_deleted":"0","num_feature":"14","num_nodes":"27","size_leaf_vector":"1"}},{"base_weights":[4.0962496E-3,-1.7483602E-1,1.8890572E-1,-3.254447E-1,-1.3390876E-1,1.0277043E-1,4.5155835E-1,-6.2080515E-3,-3.465715E-1,6.436273E-1,-1.3807908E-1,9.798967E-2,2.3161402E0,7.2868425E-1,3.0486664E-1,1.2109818E-2,-1.1433744E-2,-1.750432E-2,7.5690754E-2,1.896175E-1,-3.5594811E-3,-6.5935776E-3,-2.929276E-2,-1.6124247E-3,8.5489005E-3,2.0610514E-1,2.2119006E-2,3.3784084E-2,9.333077E-2,1.09709855E-2,3.1662893E-2],"categories":[],"categories_nodes":[],"categories_segments":[],"categories_sizes":[],"default_left":[0,0,0,0,0,0,0,0,0,0,0,0,0,0,0,0,0,0,0,0,0,0,0,0,0,0,0,0,0,0,0],"id":26,"left_children":[1,3,5,7,9,11,13,15,17,19,21,23,25,27,29,-1,-1,-1,-1,-1,-1,-1,-1,-1,-1,-1,-1,-1,-1,-1,-1],"loss_changes":[6.6623E2,6.3005188E1,2.2412119E2,1.4705948E1,2.6144302E1,7.852327E1,9.915018E1,7.624891E0,1.3818634E1,9.742478E1,2.211264E1,7.08381E1,5.1863068E1,4.9509613E1,4.472792E1,0E0,0E0,0E0,0E0,0E0,0E0,0E0,0E0,0E0,0E0,0E0,0E0,0E0,0E0,0E0,0E0],"parents":[2147483647,0,0,1,1,2,2,3,3,4,4,5,5,6,6,7,7,8,8,9,9,10,10,11,11,12,12,13,13,14,14],"right_children":[2,4,6,8,10,12,14,16,18,20,22,24,26,28,30,-1,-1,-1,-1,-1,-1,-1,-1,-1,-1,-1,-1,-1,-1,-1,-1],"split_conditions":[2.1029226E1,-1.9692087E2,2.127871E2,2E0,2E-1,5.6666665E0,1.3328405E3,1.5E0,7.3333335E0,1.5325798E3,4.5E0,1E0,1.5477126E3,3.2E0,2.5E0,1.2109818E-2,-1.1433744E-2,-1.750432E-2,7.5690754E-2,1.896175E-1,-3.5594811E-3,-6.5935776E-3,-2.929276E-2,-1.6124247E-3,8.5489005E-3,2.0610514E-1,2.2119006E-2,3.3784084E-2,9.333077E-2,1.09709855E-2,3.1662893E-2],"split_indices":[0,0,0,8,4,3,2,12,4,2,4,12,1,3,3,0,0,0,0,0,0,0,0,0,0,0,0,0,0,0,0],"split_type":[0,0,0,0,0,0,0,0,0,0,0,0,0,0,0,0,0,0,0,0,0,0,0,0,0,0,0,0,0,0,0],"sum_hessian":[2.0145E4,1.0235E4,9.91E3,2.185E3,8.05E3,7.464E3,2.446E3,1.36E2,2.049E3,4.2E1,8.008E3,7.449E3,1.5E1,8.45E2,1.601E3,6.4E1,7.2E1,2.046E3,3E0,7E0,3.5E1,7.9E3,1.08E2,2.675E3,4.774E3,7E0,8E0,8.09E2,3.6E1,1.272E3,3.29E2],"tree_param":{"num_deleted":"0","num_feature":"14","num_nodes":"31","size_leaf_vector":"1"}},{"base_weights":[3.647371E-3,-8.006675E-2,3.692647E-1,-8.892698E-2,1.6847997E0,3.354056E-1,2.143835E0,-1.8583174E-1,2.322319E-2,1.160654E0,3.1722467E0,1.7934786E-1,5.3329456E-1,-5.1496297E-2,2.4013915E0,-9.555204E-3,2.649246E-2,1.6740004E-4,2.764754E-2,8.812649E-2,-1.0825277E-2,3.0669265E-3,2.0671609E-1,8.543564E-3,1.5392026E-1,2.4475452E-2,8.829823E-2,1.2997149E-1,-6.465296E-2],"categories":[],"categories_nodes":[],"categories_segments":[],"categories_sizes":[],"default_left":[0,0,0,0,0,0,0,0,0,0,0,0,0,0,0,0,0,0,0,0,0,0,0,0,0,0,0,0,0],"id":27,"left_children":[1,3,5,7,9,11,13,15,17,19,21,23,25,-1,27,-1,-1,-1,-1,-1,-1,-1,-1,-1,-1,-1,-1,-1,-1],"loss_changes":[6.250908E2,2.5983224E2,2.2765784E2,1.7972104E2,6.0594864E1,1.15177765E2,6.06474E1,3.3540375E1,8.064299E1,5.2755577E1,6.217833E1,5.050898E1,8.774979E1,0E0,5.1780273E1,0E0,0E0,0E0,0E0,0E0,0E0,0E0,0E0,0E0,0E0,0E0,0E0,0E0,0E0],"parents":[2147483647,0,0,1,1,2,2,3,3,4,4,5,5,6,6,7,7,8,8,9,9,10,10,11,11,12,12,14,14],"right_children":[2,4,6,8,10,12,14,16,18,20,22,24,26,-1,28,-1,-1,-1,-1,-1,-1,-1,-1,-1,-1,-1,-1,-1,-1],"split_conditions":[1.6425198E2,6E0,5E0,-7.5499115E0,9.2E0,1.6666666E0,1E0,1.9E0,3.4E0,3.5E0,1E0,3.5E0,5.705456E2,-5.1496297E-2,1.02E1,-9.555204E-3,2.649246E-2,1.6740004E-4,2.764754E-2,8.812649E-2,-1.0825277E-2,3.0669265E-3,2.0671609E-1,8.543564E-3,1.5392026E-1,2.4475452E-2,8.829823E-2,1.2997149E-1,-6.465296E-2],"split_indices":[0,6,6,0,6,6,12,11,6,4,3,5,0,0,6,0,0,0,0,0,0,0,0,0,0,0,0,0,0],"split_type":[0,0,0,0,0,0,0,0,0,0,0,0,0,0,0,0,0,0,0,0,0,0,0,0,0,0,0,0,0],"sum_hessian":[2.042E4,1.6616E4,3.804E3,1.6534E4,8.2E1,3.734E3,7E1,8.87E3,7.664E3,6.2E1,2E1,2.089E3,1.645E3,5E0,6.5E1,8.806E3,6.4E1,7.388E3,2.76E2,4.3E1,1.9E1,5E0,1.5E1,2.084E3,5E0,1.59E3,5.5E1,6.2E1,3E0],"tree_param":{"num_deleted":"0","num_feature":"14","num_nodes":"29","size_leaf_vector":"1"}},{"base_weights":[7.591138E-3,-1.3403617E-1,1.944659E-1,-1.397595E-1,2.0547476E0,1.163216E-1,6.647946E-1,-2.5391674E-1,-8.6239055E-2,1.4139317E0,2.4780202E-1,2.4181092E-2,2.4938287E-1,-1.5581638E-3,8.519458E-1,-1.1556407E-2,-2.5038926E-2,-6.8741054E-3,-4.4929105E-4,1.5438604E-1,2.4646489E-2,4.8165885E-3,-6.831287E-3,8.019934E-3,1.8236635E-2,-2.7551746E-3,7.010972E-2,3.8872335E-2,1.2376781E-1],"categories":[],"categories_nodes":[],"categories_segments":[],"categories_sizes":[],"default_left":[0,0,0,0,0,0,0,0,0,0,0,0,0,0,0,0,0,0,0,0,0,0,0,0,0,0,0,0,0],"id":28,"left_children":[1,3,5,7,9,11,13,15,17,19,-1,21,23,25,27,-1,-1,-1,-1,-1,-1,-1,-1,-1,-1,-1,-1,-1,-1],"loss_changes":[5.348685E2,1.441077E2,3.200779E2,7.000455E1,4.8131317E1,9.158808E1,1.5484991E2,2.0395233E1,3.0897537E1,3.8200542E1,0E0,5.1256584E1,3.1266968E1,2.0462435E1,1.14943726E2,0E0,0E0,0E0,0E0,0E0,0E0,0E0,0E0,0E0,0E0,0E0,0E0,0E0,0E0],"parents":[2147483647,0,0,1,1,2,2,3,3,4,4,5,5,6,6,7,7,8,8,9,9,11,11,12,12,13,13,14,14],"right_children":[2,4,6,8,10,12,14,16,18,20,-1,22,24,26,28,-1,-1,-1,-1,-1,-1,-1,-1,-1,-1,-1,-1,-1,-1],"split_conditions":[4.6058037E1,7E0,2.5E0,-1.3852925E2,1.48E1,1.6425198E2,1E0,3.25E0,1.3E0,2.3333333E0,2.4780202E-1,1E0,1.6E0,3.2E0,6.5E0,-1.1556407E-2,-2.5038926E-2,-6.8741054E-3,-4.4929105E-4,1.5438604E-1,2.4646489E-2,4.8165885E-3,-6.831287E-3,8.019934E-3,1.8236635E-2,-2.7551746E-3,7.010972E-2,3.8872335E-2,1.2376781E-1],"split_indices":[0,6,6,0,6,0,12,4,6,4,0,7,6,3,6,0,0,0,0,0,0,0,0,0,0,0,0,0,0],"split_type":[0,0,0,0,0,0,0,0,0,0,0,0,0,0,0,0,0,0,0,0,0,0,0,0,0,0,0,0,0],"sum_hessian":[2.0207E4,1.1495E4,8.712E3,1.1466E4,2.9E1,7.472E3,1.24E3,3.658E3,7.808E3,2.5E1,4E0,4.416E3,3.056E3,2.72E2,9.68E2,3.351E3,3.07E2,4.693E3,3.115E3,8E0,1.7E1,3.049E3,1.367E3,1.727E3,1.329E3,2.63E2,9E0,9.27E2,4.1E1],"tree_param":{"num_deleted":"0","num_feature":"14","num_nodes":"29","size_leaf_vector":"1"}},{"base_weights":[-3.4268275E-3,-2.8194001E-2,8.185877E-1,-8.332281E-2,1.4041641E-1,7.5265366E-1,6.197566E0,-3.2199405E-2,-2.1532963E-1,8.548247E-2,6.818087E-1,5.309481E-1,1.9187629E0,4.27448E-1,1.1358905E-1,-1.4642613E-2,-1.4776492E-4,-3.0673447E-3,-1.2243044E-2,-8.2934275E-3,7.762681E-3,6.475617E-2,2.6335979E-2,2.0715483E-2,1.5023471E-1,6.931447E-2,1.4209288E-1],"categories":[],"categories_nodes":[],"categories_segments":[],"categories_sizes":[],"default_left":[0,0,0,0,0,0,0,0,0,0,0,0,0,0,0,0,0,0,0,0,0,0,0,0,0,0,0],"id":29,"left_children":[1,3,5,7,9,11,13,15,17,19,21,23,25,-1,-1,-1,-1,-1,-1,-1,-1,-1,-1,-1,-1,-1,-1],"loss_changes":[4.113786E2,1.8237032E2,2.0424332E2,9.975366E1,1.4363205E2,1.4997797E2,4.4114014E1,8.122604E1,1.8721085E1,7.701233E1,4.146335E1,1.4066048E2,4.1349243E1,0E0,0E0,0E0,0E0,0E0,0E0,0E0,0E0,0E0,0E0,0E0,0E0,0E0,0E0],"parents":[2147483647,0,0,1,1,2,2,3,3,4,4,5,5,6,6,7,7,8,8,9,9,10,10,11,11,12,12],"right_children":[2,4,6,8,10,12,14,16,18,20,22,24,26,-1,-1,-1,-1,-1,-1,-1,-1,-1,-1,-1,-1,-1,-1],"split_conditions":[3.75E0,1.6666666E0,5.6666665E0,1E0,2.5E0,1.5821742E3,1.3862445E3,1.3751465E3,2E0,1.3961669E3,5E-1,9.2E0,1.3895525E3,4.27448E-1,1.1358905E-1,-1.4642613E-2,-1.4776492E-4,-3.0673447E-3,-1.2243044E-2,-8.2934275E-3,7.762681E-3,6.475617E-2,2.6335979E-2,2.0715483E-2,1.5023471E-1,6.931447E-2,1.4209288E-1],"split_indices":[6,6,3,7,3,1,2,1,8,1,4,6,2,0,0,0,0,0,0,0,0,0,0,0,0,0,0],"split_type":[0,0,0,0,0,0,0,0,0,0,0,0,0,0,0,0,0,0,0,0,0,0,0,0,0,0,0],"sum_hessian":[2.0208E4,1.9618E4,5.9E2,1.4785E4,4.833E3,5.84E2,6E0,1.0659E4,4.126E3,4.389E3,4.44E2,4.92E2,9.2E1,3E0,3E0,1.074E3,9.585E3,6.65E2,3.461E3,9.53E2,3.436E3,8.8E1,3.56E2,4.71E2,2.1E1,6E1,3.2E1],"tree_param":{"num_deleted":"0","num_feature":"14","num_nodes":"27","size_leaf_vector":"1"}},{"base_weights":[-2.673334E-3,-9.258652E-2,2.4687515E-1,-1.0416289E-1,5.929466E-1,1.8957956E-1,9.037163E-1,-2.183802E-1,-5.4830015E-2,5.07574E-1,2.3188055E-1,1.2657017E-1,4.5017937E-1,5.9198236E-1,2.1355321E0,-1.7568244E-2,-9.339181E-3,-6.603144E-3,-6.336724E-4,9.245946E-3,6.983486E-2,5.4512643E-3,3.9124664E-2,1.4507644E-2,3.4145743E-2,1.9737972E-2,8.634738E-2,1.4058869E-1,2.5959752E-4],"categories":[],"categories_nodes":[],"categories_segments":[],"categories_sizes":[],"default_left":[0,0,0,0,0,0,0,0,0,0,0,0,0,0,0,0,0,0,0,0,0,0,0,0,0,0,0,0,0],"id":30,"left_children":[1,3,5,7,9,11,13,15,17,19,-1,21,23,25,27,-1,-1,-1,-1,-1,-1,-1,-1,-1,-1,-1,-1,-1,-1],"loss_changes":[4.5762427E2,1.19005035E2,2.0301877E2,8.3049515E1,8.311204E1,8.149391E1,1.6473453E2,1.8566254E1,3.351934E1,6.98692E1,0E0,4.590393E1,3.571933E1,7.677898E1,1.25038086E2,0E0,0E0,0E0,0E0,0E0,0E0,0E0,0E0,0E0,0E0,0E0,0E0,0E0,0E0],"parents":[2147483647,0,0,1,1,2,2,3,3,4,4,5,5,6,6,7,7,8,8,9,9,11,11,12,12,13,13,14,14],"right_children":[2,4,6,8,10,12,14,16,18,20,-1,22,24,26,28,-1,-1,-1,-1,-1,-1,-1,-1,-1,-1,-1,-1,-1,-1],"split_conditions":[1.2112955E2,4E0,3.4E0,-1.1259755E2,1.48E1,2.9879886E2,1.371105E3,1.298252E3,5E0,6.670764E1,2.3188055E-1,2.8E0,1.5E0,1.659971E3,1.6898693E3,-1.7568244E-2,-9.339181E-3,-6.603144E-3,-6.336724E-4,9.245946E-3,6.983486E-2,5.4512643E-3,3.9124664E-2,1.4507644E-2,3.4145743E-2,1.9737972E-2,8.634738E-2,1.4058869E-1,2.5959752E-4],"split_indices":[0,6,6,0,6,0,2,1,9,0,0,5,12,1,1,0,0,0,0,0,0,0,0,0,0,0,0,0,0],"split_type":[0,0,0,0,0,0,0,0,0,0,0,0,0,0,0,0,0,0,0,0,0,0,0,0,0,0,0,0,0],"sum_hessian":[2.0394E4,1.4993E4,5.401E3,1.4745E4,2.48E2,4.969E3,4.32E2,4.446E3,1.0299E4,2.44E2,4E0,4.003E3,9.66E2,3.46E2,8.6E1,8.51E2,3.595E3,3.635E3,6.664E3,1.8E2,6.4E1,3.9E3,1.03E2,5.74E2,3.92E2,2.96E2,5E1,6.5E1,2.1E1],"tree_param":{"num_deleted":"0","num_feature":"14","num_nodes":"29","size_leaf_vector":"1"}},{"base_weights":[-1.5858611E-3,-6.1232362E-2,3.199653E-1,-1.3781893E-2,-1.8354096E-1,3.0565393E-1,6.7184978E0,8.063702E-2,-7.914771E-2,-2.1280779E-1,9.419512E-2,2.5248024E-1,1.0394433E0,4.0854168E-1,1.7807691E-1,-1.1104388E-3,9.518908E-3,-1.0083E-2,-1.1965653E-3,-5.0430945E-3,-1.2232578E-2,-3.649148E-3,2.282273E-2,1.077824E-2,6.099782E-2,4.6490204E-2,3.255321E-1],"categories":[],"categories_nodes":[],"categories_segments":[],"categories_sizes":[],"default_left":[0,0,0,0,0,0,0,0,0,0,0,0,0,0,0,0,0,0,0,0,0,0,0,0,0,0,0],"id":31,"left_children":[1,3,5,7,9,11,13,15,17,19,21,23,25,-1,-1,-1,-1,-1,-1,-1,-1,-1,-1,-1,-1,-1,-1],"loss_changes":[3.8795465E2,9.9010376E1,2.8706918E2,7.589431E1,3.879651E1,1.22867096E2,1.8207703E0,5.679171E1,4.91316E1,1.53228E1,2.7627298E1,1.0484508E2,1.2097209E2,0E0,0E0,0E0,0E0,0E0,0E0,0E0,0E0,0E0,0E0,0E0,0E0,0E0,0E0],"parents":[2147483647,0,0,1,1,2,2,3,3,4,4,5,5,6,6,7,7,8,8,9,9,10,10,11,11,12,12],"right_children":[2,4,6,8,10,12,14,16,18,20,22,24,26,-1,-1,-1,-1,-1,-1,-1,-1,-1,-1,-1,-1,-1,-1],"split_conditions":[2.2E0,1E0,5.6666665E0,6E0,2.5E0,2.8E0,6.2E0,5E0,6E0,3E0,1.25E0,6E0,4.2E0,4.0854168E-1,1.7807691E-1,-1.1104388E-3,9.518908E-3,-1.0083E-2,-1.1965653E-3,-5.0430945E-3,-1.2232578E-2,-3.649148E-3,2.282273E-2,1.077824E-2,6.099782E-2,4.6490204E-2,3.255321E-1],"split_indices":[6,7,3,8,3,3,3,9,9,8,6,6,5,0,0,0,0,0,0,0,0,0,0,0,0,0,0],"split_type":[0,0,0,0,0,0,0,0,0,0,0,0,0,0,0,0,0,0,0,0,0,0,0,0,0,0,0],"sum_hessian":[2.0227E4,1.7063E4,3.164E3,1.2295E4,4.768E3,3.158E3,6E0,5.029E3,7.266E3,4.314E3,4.54E2,2.946E3,2.12E2,3E0,3E0,2.596E3,2.433E3,2.256E3,5.01E3,9.57E2,3.357E3,3.11E2,1.43E2,2.839E3,1.07E2,2.09E2,3E0],"tree_param":{"num_deleted":"0","num_feature":"14","num_nodes":"27","size_leaf_vector":"1"}},{"base_weights":[-6.738064E-3,-1.4714234E-1,1.2639192E-1,-1.5090483E-1,9.4160795E-1,6.8254426E-2,4.989652E-1,-2.576728E-1,-1.2014696E-1,1.8291935E-1,4.5409116E-1,1.9681321E-2,2.4448596E-1,4.7845852E-1,3.7632805E-1,-1.321511E-2,4.3409914E-2,-5.503807E-3,-1.9592108E-2,-3.8104054E-2,6.017818E-2,8.467262E-5,1.3234751E-2,1.128148E-2,6.1715174E-2,2.04826E-2,8.991703E-2],"categories":[],"categories_nodes":[],"categories_segments":[],"categories_sizes":[],"default_left":[0,0,0,0,0,0,0,0,0,0,0,0,0,0,0,0,0,0,0,0,0,0,0,0,0,0,0],"id":32,"left_children":[1,3,5,7,9,11,13,15,17,-1,19,21,23,25,-1,-1,-1,-1,-1,-1,-1,-1,-1,-1,-1,-1,-1],"loss_changes":[3.7862744E2,4.0449722E1,2.251132E2,3.2199387E1,4.2959675E1,7.696698E1,1.9778833E2,1.6559738E1,2.0786575E1,0E0,2.8305984E1,3.1057423E1,3.5840332E1,1.2618564E2,0E0,0E0,0E0,0E0,0E0,0E0,0E0,0E0,0E0,0E0,0E0,0E0,0E0],"parents":[2147483647,0,0,1,1,2,2,3,3,4,4,5,5,6,6,7,7,8,8,10,10,11,11,12,12,13,13],"right_children":[2,4,6,8,10,12,14,16,18,-1,20,22,24,26,-1,-1,-1,-1,-1,-1,-1,-1,-1,-1,-1,-1,-1],"split_conditions":[1.3797747E1,6E0,2.5E0,-1.9692087E2,2E0,2.127871E2,3.8E0,3E0,3.25E0,1.8291935E-1,1E0,3E0,2.6666667E0,6.2E0,3.7632805E-1,-1.321511E-2,4.3409914E-2,-5.503807E-3,-1.9592108E-2,-3.8104054E-2,6.017818E-2,8.467262E-5,1.3234751E-2,1.128148E-2,6.1715174E-2,2.04826E-2,8.991703E-2],"split_indices":[0,6,6,0,13,0,5,6,4,0,3,3,5,6,0,0,0,0,0,0,0,0,0,0,0,0,0],"split_type":[0,0,0,0,0,0,0,0,0,0,0,0,0,0,0,0,0,0,0,0,0,0,0,0,0,0,0],"sum_hessian":[2.0254E4,9.858E3,1.0396E4,9.825E3,3.3E1,8.994E3,1.402E3,2.195E3,7.63E3,4E0,2.9E1,7.052E3,1.942E3,1.399E3,3E0,2.183E3,1.2E1,7.359E3,2.71E2,1.1E1,1.8E1,6.571E3,4.81E2,1.907E3,3.5E1,1.331E3,6.8E1],"tree_param":{"num_deleted":"0","num_feature":"14","num_nodes":"27","size_leaf_vector":"1"}},{"base_weights":[-6.269162E-4,-7.624505E-2,2.0340697E-1,-8.74738E-2,7.841884E-1,1.8098608E-1,1.3087094E0,-1.5512729E-1,-1.9209769E-2,6.6892344E-1,2.9902965E-1,1.4905131E-1,7.235783E-1,6.4684224E-1,2.3882248E0,-8.257505E-3,1.8079182E-2,1.7214104E-3,-6.7391694E-3,2.7839798E-2,2.8312942E-1,3.5301072E-3,1.3668756E-2,-2.2652443E-2,4.141384E-2,-7.597269E-2,5.2072972E-2,8.038203E-2,3.8334516E-1],"categories":[],"categories_nodes":[],"categories_segments":[],"categories_sizes":[],"default_left":[0,0,0,0,0,0,0,0,0,0,0,0,0,0,0,0,0,0,0,0,0,0,0,0,0,0,0,0,0],"id":33,"left_children":[1,3,5,7,9,11,13,15,17,19,-1,21,23,25,27,-1,-1,-1,-1,-1,-1,-1,-1,-1,-1,-1,-1,-1,-1],"loss_changes":[3.1354404E2,1.4326111E2,1.3579056E2,6.758227E1,1.0973645E2,9.314844E1,7.603175E1,3.8110077E1,4.5193977E1,1.0149143E2,0E0,4.957982E1,3.7246933E1,6.051982E1,1.5568549E2,0E0,0E0,0E0,0E0,0E0,0E0,0E0,0E0,0E0,0E0,0E0,0E0,0E0,0E0],"parents":[2147483647,0,0,1,1,2,2,3,3,4,4,5,5,6,6,7,7,8,8,9,9,11,11,12,12,13,13,14,14],"right_children":[2,4,6,8,10,12,14,16,18,20,-1,22,24,26,28,-1,-1,-1,-1,-1,-1,-1,-1,-1,-1,-1,-1,-1,-1],"split_conditions":[1.19028206E2,4.25E0,5E0,-3.8487976E1,4.4E0,4.2362326E2,1.3190479E3,1.1E0,1E0,1.48E1,2.9902965E-1,1.6666666E0,1E0,4E0,2.8420047E2,-8.257505E-3,1.8079182E-2,1.7214104E-3,-6.7391694E-3,2.7839798E-2,2.8312942E-1,3.5301072E-3,1.3668756E-2,-2.2652443E-2,4.141384E-2,-7.597269E-2,5.2072972E-2,8.038203E-2,3.8334516E-1],"split_indices":[0,6,6,0,3,0,2,11,7,6,0,6,3,13,0,0,0,0,0,0,0,0,0,0,0,0,0,0,0],"split_type":[0,0,0,0,0,0,0,0,0,0,0,0,0,0,0,0,0,0,0,0,0,0,0,0,0,0,0,0,0],"sum_hessian":[2.0321E4,1.4827E4,5.494E3,1.4637E4,1.9E2,5.386E3,1.08E2,7.35E3,7.287E3,1.87E2,3E0,5.088E3,2.98E2,6.8E1,4E1,7.211E3,1.39E2,4.977E3,2.31E3,1.84E2,3E0,3.121E3,1.967E3,2.4E1,2.74E2,1E1,5.8E1,3.6E1,4E0],"tree_param":{"num_deleted":"0","num_feature":"14","num_nodes":"29","size_leaf_vector":"1"}},{"base_weights":[9.25622E-3,-7.802931E-2,2.1432087E-1,-9.2080906E-2,7.886777E-1,1.3529064E-1,4.3696204E-1,-2.1533786E-1,-6.0929768E-2,6.960025E-1,2.8781605E-1,2.0481285E-1,-6.657299E-2,3.642858E-1,1.3209544E0,-1.9787265E-2,-9.6407E-3,-9.819882E-4,-7.569236E-3,3.0317554E-2,2.7251208E-1,9.849827E-3,9.0187036E-2,-5.8565657E-3,2.2007367E-2,1.6495716E-2,7.204356E-2,5.620131E-2,3.3629334E-1],"categories":[],"categories_nodes":[],"categories_segments":[],"categories_sizes":[],"default_left":[0,0,0,0,0,0,0,0,0,0,0,0,0,0,0,0,0,0,0,0,0,0,0,0,0,0,0,0,0],"id":34,"left_children":[1,3,5,7,9,11,13,15,17,19,-1,21,23,25,27,-1,-1,-1,-1,-1,-1,-1,-1,-1,-1,-1,-1,-1,-1],"loss_changes":[3.6311514E2,1.7329245E2,1.0645892E2,5.3725098E1,9.9854034E1,6.2787537E1,1.01243225E2,1.1340073E1,4.1735943E1,9.156381E1,0E0,4.102455E1,2.9378551E1,5.3632187E1,1.19380554E2,0E0,0E0,0E0,0E0,0E0,0E0,0E0,0E0,0E0,0E0,0E0,0E0,0E0,0E0],"parents":[2147483647,0,0,1,1,2,2,3,3,4,4,5,5,6,6,7,7,8,8,9,9,11,11,12,12,13,13,14,14],"right_children":[2,4,6,8,10,12,14,16,18,20,-1,22,24,26,28,-1,-1,-1,-1,-1,-1,-1,-1,-1,-1,-1,-1,-1,-1],"split_conditions":[1.037884E2,4E0,2.2E0,-1.6792662E2,4.4E0,1E0,3E0,-4.094197E2,1E0,1.16E1,2.8781605E-1,4.6666665E0,2.25E0,5.705456E2,7.8E0,-1.9787265E-2,-9.6407E-3,-9.819882E-4,-7.569236E-3,3.0317554E-2,2.7251208E-1,9.849827E-3,9.0187036E-2,-5.8565657E-3,2.2007367E-2,1.6495716E-2,7.204356E-2,5.620131E-2,3.3629334E-1],"split_indices":[0,6,6,0,3,7,3,0,7,6,0,3,5,0,6,0,0,0,0,0,0,0,0,0,0,0,0,0,0],"split_type":[0,0,0,0,0,0,0,0,0,0,0,0,0,0,0,0,0,0,0,0,0,0,0,0,0,0,0,0,0],"sum_hessian":[2.0284E4,1.4228E4,6.056E3,1.4002E4,2.26E2,4.471E3,1.585E3,2.823E3,1.1179E4,2.23E2,3E0,3.326E3,1.145E3,1.466E3,1.19E2,3.11E2,2.512E3,7.677E3,3.502E3,2.2E2,3E0,3.311E3,1.5E1,1.042E3,1.03E2,1.422E3,4.4E1,1.16E2,3E0],"tree_param":{"num_deleted":"0","num_feature":"14","num_nodes":"29","size_leaf_vector":"1"}},{"base_weights":[2.6511021E-3,-6.455618E-2,2.5034055E-1,-1.3952734E-1,2.4699152E-2,1.9856754E-1,9.741295E-1,-1.4198759E-1,1.5045023E0,-1.4569725E-4,5.809236E-1,1.438707E-1,5.997763E-1,5.185895E-1,1.8289142E0,-5.9419703E-3,-1.4206568E-2,1.2954763E-2,1.7126673E-1,2.888378E-3,-6.3850777E-3,2.5725946E-2,2.7702293E-1,6.90474E-3,2.1031928E-1,1.6052175E-2,4.401159E-2,-3.2725655E-2,3.266733E-2,7.612213E-2,1.9705842E-1],"categories":[],"categories_nodes":[],"categories_segments":[],"categories_sizes":[],"default_left":[0,0,0,0,0,0,0,0,0,0,0,0,0,0,0,0,0,0,0,0,0,0,0,0,0,0,0,0,0,0,0],"id":35,"left_children":[1,3,5,7,9,11,13,15,17,19,21,23,25,27,29,-1,-1,-1,-1,-1,-1,-1,-1,-1,-1,-1,-1,-1,-1,-1,-1],"loss_changes":[3.3810922E2,1.0691284E2,1.6213358E2,3.519777E1,1.0084241E2,8.865015E1,1.113501E2,2.8456757E1,2.9842907E1,5.1591625E1,9.929687E1,8.258939E1,3.7510757E1,3.0463444E1,5.818799E1,0E0,0E0,0E0,0E0,0E0,0E0,0E0,0E0,0E0,0E0,0E0,0E0,0E0,0E0,0E0,0E0],"parents":[2147483647,0,0,1,1,2,2,3,3,4,4,5,5,6,6,7,7,8,8,9,9,10,10,11,11,12,12,13,13,14,14],"right_children":[2,4,6,8,10,12,14,16,18,20,22,24,26,28,30,-1,-1,-1,-1,-1,-1,-1,-1,-1,-1,-1,-1,-1,-1,-1,-1],"split_conditions":[1.505569E2,-1.0607891E1,3.6666667E0,8E0,3.4E0,3.684797E2,1.5752903E3,2.6E0,1.4136805E3,1E0,5.6666665E0,4.4E0,1.7749358E3,1.359117E3,6.5E0,-5.9419703E-3,-1.4206568E-2,1.2954763E-2,1.7126673E-1,2.888378E-3,-6.3850777E-3,2.5725946E-2,2.7702293E-1,6.90474E-3,2.1031928E-1,1.6052175E-2,4.401159E-2,-3.2725655E-2,3.266733E-2,7.612213E-2,1.9705842E-1],"split_indices":[0,0,6,6,6,0,1,4,1,7,3,5,1,1,6,0,0,0,0,0,0,0,0,0,0,0,0,0,0,0,0],"split_type":[0,0,0,0,0,0,0,0,0,0,0,0,0,0,0,0,0,0,0,0,0,0,0,0,0,0,0,0,0,0,0],"sum_hessian":[2.0308E4,1.5974E4,4.334E3,8.682E3,7.292E3,4.046E3,2.88E2,8.67E3,1.2E1,6.981E3,3.11E2,3.562E3,4.84E2,1.89E2,9.9E1,7.458E3,1.212E3,8E0,4E0,4.801E3,2.18E3,3.08E2,3E0,3.558E3,4E0,2.44E2,2.4E2,1.9E1,1.7E2,8.8E1,1.1E1],"tree_param":{"num_deleted":"0","num_feature":"14","num_nodes":"31","size_leaf_vector":"1"}},{"base_weights":[-1.0139024E-2,-2.9650962E-2,6.568309E-1,-7.0509896E-2,1.9161548E-1,5.9200084E-1,3.3555797E-1,-8.843146E-2,1.4239159E-1,1.6741532E-1,7.8531617E-1,2.2139165E-1,1.2692485E0,-2.4323943E-3,-9.262337E-3,1.3674143E-2,-3.3273087E-3,5.012627E-3,1.7150505E-2,3.324411E-2,1.3100977E-1,-2.9416743E-3,2.8997699E-2,4.4287294E-2,9.970888E-2],"categories":[],"categories_nodes":[],"categories_segments":[],"categories_sizes":[],"default_left":[0,0,0,0,0,0,0,0,0,0,0,0,0,0,0,0,0,0,0,0,0,0,0,0,0],"id":36,"left_children":[1,3,5,7,9,11,-1,13,15,17,19,21,23,-1,-1,-1,-1,-1,-1,-1,-1,-1,-1,-1,-1],"loss_changes":[2.6419052E2,1.7835655E2,2.2177061E2,6.3551003E1,4.395379E1,1.4313863E2,0E0,5.913678E1,3.5454052E1,3.478267E1,2.444719E1,3.7363636E1,5.4104156E1,0E0,0E0,0E0,0E0,0E0,0E0,0E0,0E0,0E0,0E0,0E0,0E0],"parents":[2147483647,0,0,1,1,2,2,3,3,4,4,5,5,7,7,8,8,9,9,10,10,11,11,12,12],"right_children":[2,4,6,8,10,12,-1,14,16,18,20,22,24,-1,-1,-1,-1,-1,-1,-1,-1,-1,-1,-1,-1],"split_conditions":[3.75E0,1.7877222E2,5.6666665E0,2.5E0,4.969756E2,1.5E3,3.3555797E-1,1E0,1.6349326E3,1.25E0,1.9706353E3,6.666667E-1,1.3895525E3,-2.4323943E-3,-9.262337E-3,1.3674143E-2,-3.3273087E-3,5.012627E-3,1.7150505E-2,3.324411E-2,1.3100977E-1,-2.9416743E-3,2.8997699E-2,4.4287294E-2,9.970888E-2],"split_indices":[6,0,3,3,0,1,0,7,2,5,1,5,2,0,0,0,0,0,0,0,0,0,0,0,0],"split_type":[0,0,0,0,0,0,0,0,0,0,0,0,0,0,0,0,0,0,0,0,0,0,0,0,0],"sum_hessian":[2.0303E4,1.9727E4,5.76E2,1.6653E4,3.074E3,5.71E2,5E0,1.5361E4,1.292E3,2.955E3,1.19E2,3.7E2,2.01E2,1.0889E4,4.472E3,7.94E2,4.98E2,2.139E3,8.16E2,1.13E2,6E0,2.08E2,1.62E2,1.33E2,6.8E1],"tree_param":{"num_deleted":"0","num_feature":"14","num_nodes":"25","size_leaf_vector":"1"}},{"base_weights":[3.8449848E-3,-9.808601E-2,1.4582735E-1,-1.0146273E-1,7.6374346E-1,1.04836114E-1,7.3975015E-1,-2.6581582E-1,-8.550608E-2,4.0292656E-1,1.5426843E-1,5.8008272E-2,3.3747888E-1,1.4859347E-1,1.0916431E0,-1.6014388E-2,-7.304579E-3,-6.035916E-3,-1.18596E-3,3.408857E-2,-1.1609153E-1,-2.6504467E-3,6.0222833E-3,1.8826978E-2,-1.33156255E-2,3.9845323E-3,1.7830189E-1,4.7355257E-2,1.4040309E-1],"categories":[],"categories_nodes":[],"categories_segments":[],"categories_sizes":[],"default_left":[0,0,0,0,0,0,0,0,0,0,0,0,0,0,0,0,0,0,0,0,0,0,0,0,0,0,0,0,0],"id":37,"left_children":[1,3,5,7,9,11,13,15,17,19,-1,21,23,25,27,-1,-1,-1,-1,-1,-1,-1,-1,-1,-1,-1,-1,-1,-1],"loss_changes":[2.9304187E2,3.431038E1,2.0585075E2,3.0733185E1,3.694134E1,8.618991E1,1.132948E2,6.67601E0,2.3270905E1,3.2570114E1,0E0,4.5706398E1,3.1384354E1,4.7622913E1,8.181091E1,0E0,0E0,0E0,0E0,0E0,0E0,0E0,0E0,0E0,0E0,0E0,0E0,0E0,0E0],"parents":[2147483647,0,0,1,1,2,2,3,3,4,4,5,5,6,6,7,7,8,8,9,9,11,11,12,12,13,13,14,14],"right_children":[2,4,6,8,10,12,14,16,18,20,-1,22,24,26,28,-1,-1,-1,-1,-1,-1,-1,-1,-1,-1,-1,-1,-1,-1],"split_conditions":[4.9549976E1,6E0,3.4E0,-2.8483456E2,1.4873923E3,2.657775E2,1.4684716E3,1.4096688E3,1.3E0,1.4560891E3,1.5426843E-1,1E0,1.6097394E3,2.6666667E0,6.5E0,-1.6014388E-2,-7.304579E-3,-6.035916E-3,-1.18596E-3,3.408857E-2,-1.1609153E-1,-2.6504467E-3,6.0222833E-3,1.8826978E-2,-1.33156255E-2,3.9845323E-3,1.7830189E-1,4.7355257E-2,1.4040309E-1],"split_indices":[0,6,6,0,2,0,1,1,6,1,0,12,2,3,6,0,0,0,0,0,0,0,0,0,0,0,0,0,0],"split_type":[0,0,0,0,0,0,0,0,0,0,0,0,0,0,0,0,0,0,0,0,0,0,0,0,0,0,0,0,0],"sum_hessian":[2.0246E4,1.1785E4,8.461E3,1.174E4,4.5E1,7.916E3,5.45E2,1.037E3,1.0703E4,4E1,5E0,6.591E3,1.325E3,2.04E2,3.41E2,7.11E2,3.26E2,6.816E3,3.887E3,3.7E1,3E0,2.372E3,4.219E3,1.245E3,8E1,2.01E2,3E0,3.16E2,2.5E1],"tree_param":{"num_deleted":"0","num_feature":"14","num_nodes":"29","size_leaf_vector":"1"}},{"base_weights":[4.1552132E-4,-5.2117366E-2,2.3030965E-1,-6.468387E-2,6.2664866E-1,2.2122382E-1,4.4798064E0,-1.3585515E-1,-6.149467E-3,1.2029926E-1,1.3281633E0,1.908921E-1,8.878574E-1,6.3372195E-2,3.6751541E-1,-2.160863E-3,-8.772085E-3,-5.733279E-3,1.5324446E-3,1.6794607E-2,-2.4705654E-2,5.1671963E-2,1.9014037E-1,8.60185E-3,6.1640292E-2,8.6095825E-2,3.3192158E-2],"categories":[],"categories_nodes":[],"categories_segments":[],"categories_sizes":[],"default_left":[0,0,0,0,0,0,0,0,0,0,0,0,0,0,0,0,0,0,0,0,0,0,0,0,0,0,0],"id":38,"left_children":[1,3,5,7,9,11,13,15,17,19,21,23,25,-1,-1,-1,-1,-1,-1,-1,-1,-1,-1,-1,-1,-1,-1],"loss_changes":[2.4574852E2,1.4125346E2,1.4467856E2,6.773195E1,1.0661405E2,7.611429E1,6.359085E1,2.688057E1,3.5651356E1,2.3463621E1,8.748285E1,7.066557E1,2.9260284E1,0E0,0E0,0E0,0E0,0E0,0E0,0E0,0E0,0E0,0E0,0E0,0E0,0E0,0E0],"parents":[2147483647,0,0,1,1,2,2,3,3,4,4,5,5,6,6,7,7,8,8,9,9,10,10,11,11,12,12],"right_children":[2,4,6,8,10,12,14,16,18,20,22,24,26,-1,-1,-1,-1,-1,-1,-1,-1,-1,-1,-1,-1,-1,-1],"split_conditions":[1.6425198E2,4E0,7.8E0,-3.8487976E1,1.3836978E3,4.969756E2,1.8646216E2,1E0,4E0,3.25E0,9.2E0,5E0,5E-1,6.3372195E-2,3.6751541E-1,-2.160863E-3,-8.772085E-3,-5.733279E-3,1.5324446E-3,1.6794607E-2,-2.4705654E-2,5.1671963E-2,1.9014037E-1,8.60185E-3,6.1640292E-2,8.6095825E-2,3.3192158E-2],"split_indices":[0,6,6,0,2,0,0,12,9,4,6,6,4,0,0,0,0,0,0,0,0,0,0,0,0,0,0],"split_type":[0,0,0,0,0,0,0,0,0,0,0,0,0,0,0,0,0,0,0,0,0,0,0,0,0,0,0],"sum_hessian":[2.0345E4,1.6561E4,3.784E3,1.6261E4,3E2,3.777E3,7E0,7.337E3,8.924E3,1.75E2,1.25E2,3.614E3,1.63E2,4E0,3E0,2.198E3,5.139E3,2.26E3,6.664E3,1.3E2,4.5E1,1.13E2,1.2E1,3.551E3,6.3E1,3.3E1,1.3E2],"tree_param":{"num_deleted":"0","num_feature":"14","num_nodes":"27","size_leaf_vector":"1"}},{"base_weights":[-8.243467E-4,-1.7643433E-2,5.5437773E-1,-1.12823136E-1,3.5874918E-2,2.0374714E-1,1.1609585E0,-1.4728297E-1,-1.9166821E-3,-5.6740623E-3,2.6486763E-1,-2.5117952E-1,5.3413135E-1,2.257531E-1,1.0926917E0,-5.383452E-3,-1.2835229E-2,-4.4493945E-3,7.932643E-3,6.690929E-3,-2.9540649E-3,1.550275E-2,-4.1491757E-3,8.742388E-2,-1.7054569E-2,1.1005429E-2,6.830951E-2,6.175014E-2,-7.046609E-2],"categories":[],"categories_nodes":[],"categories_segments":[],"categories_sizes":[],"default_left":[0,0,0,0,0,0,0,0,0,0,0,0,0,0,0,0,0,0,0,0,0,0,0,0,0,0,0,0,0],"id":39,"left_children":[1,3,5,7,9,11,13,15,17,19,21,23,25,-1,27,-1,-1,-1,-1,-1,-1,-1,-1,-1,-1,-1,-1,-1,-1],"loss_changes":[1.8928389E2,1.0025893E2,1.2638771E2,2.7058556E1,1.1988049E2,5.7126377E1,4.4421967E1,2.3360191E1,2.3509182E1,7.9438896E1,3.0463669E1,2.9222504E1,5.7023453E1,0E0,7.827695E1,0E0,0E0,0E0,0E0,0E0,0E0,0E0,0E0,0E0,0E0,0E0,0E0,0E0,0E0],"parents":[2147483647,0,0,1,1,2,2,3,3,4,4,5,5,6,6,7,7,8,8,9,9,10,10,11,11,12,12,14,14],"right_children":[2,4,6,8,10,12,14,16,18,20,22,24,26,-1,28,-1,-1,-1,-1,-1,-1,-1,-1,-1,-1,-1,-1,-1,-1],"split_conditions":[3.75E0,5E0,1.5E3,1.7516796E3,2.2E0,1E0,2E-1,1E0,2E0,1E0,1.6242656E3,6.666667E-1,1.3926837E3,2.257531E-1,2E0,-5.383452E-3,-1.2835229E-2,-4.4493945E-3,7.932643E-3,6.690929E-3,-2.9540649E-3,1.550275E-2,-4.1491757E-3,8.742388E-2,-1.7054569E-2,1.1005429E-2,6.830951E-2,6.175014E-2,-7.046609E-2],"split_indices":[6,9,1,1,3,3,4,7,9,10,2,4,2,0,5,0,0,0,0,0,0,0,0,0,0,0,0,0,0],"split_type":[0,0,0,0,0,0,0,0,0,0,0,0,0,0,0,0,0,0,0,0,0,0,0,0,0,0,0,0,0],"sum_hessian":[2.0274E4,1.9679E4,5.95E2,7.083E3,1.2596E4,3.78E2,2.17E2,5.403E3,1.68E3,1.0662E4,1.934E3,1.59E2,2.19E2,3E0,2.14E2,3.969E3,1.434E3,1.09E3,5.9E2,2.951E3,7.711E3,1.712E3,2.22E2,6E0,1.53E2,1.6E2,5.9E1,2.03E2,1.1E1],"tree_param":{"num_deleted":"0","num_feature":"14","num_nodes":"29","size_leaf_vector":"1"}},{"base_weights":[-8.231071E-4,-9.444354E-2,1.09524734E-1,-9.774557E-2,1.3495076E0,4.623363E-2,3.2889E-1,-6.376951E-2,-1.8068714E-1,1.8888433E0,-2.9290465E-1,1.0483279E-1,-1.038821E-1,2.9269472E-1,1.4820545E0,-1.5247597E-2,-2.2222705E-3,-9.544372E-3,6.780551E-2,1.2155312E-2,1.5272757E-1,6.2857054E-2,-8.973621E-2,1.389887E-3,9.125203E-3,-5.454722E-3,8.262268E-2,1.5025511E-2,-1.4477508E-1,5.0330665E-2,4.1090804E-1],"categories":[],"categories_nodes":[],"categories_segments":[],"categories_sizes":[],"default_left":[0,0,0,0,0,0,0,0,0,0,0,0,0,0,0,0,0,0,0,0,0,0,0,0,0,0,0,0,0,0,0],"id":40,"left_children":[1,3,5,7,9,11,13,15,17,19,21,23,25,27,29,-1,-1,-1,-1,-1,-1,-1,-1,-1,-1,-1,-1,-1,-1,-1,-1],"loss_changes":[2.0923878E2,5.225406E1,1.2901172E2,3.0776352E1,2.2858131E1,6.348765E1,8.62478E1,3.6113373E1,4.9928528E1,3.5378197E1,1.8605202E1,3.1033772E1,1.8573183E1,5.0918945E1,1.9257022E2,0E0,0E0,0E0,0E0,0E0,0E0,0E0,0E0,0E0,0E0,0E0,0E0,0E0,0E0,0E0,0E0],"parents":[2147483647,0,0,1,1,2,2,3,3,4,4,5,5,6,6,7,7,8,8,9,9,10,10,11,11,12,12,13,13,14,14],"right_children":[2,4,6,8,10,12,14,16,18,20,22,24,26,28,30,-1,-1,-1,-1,-1,-1,-1,-1,-1,-1,-1,-1,-1,-1,-1,-1],"split_conditions":[3.3538456E1,7.2E0,2.2E0,1E0,1.5E0,1E0,6.2E0,1.2573638E3,5E0,1.3751465E3,1.4321549E3,1.5E0,5E0,5.4E0,1.6840801E3,-1.5247597E-2,-2.2222705E-3,-9.544372E-3,6.780551E-2,1.2155312E-2,1.5272757E-1,6.2857054E-2,-8.973621E-2,1.389887E-3,9.125203E-3,-5.454722E-3,8.262268E-2,1.5025511E-2,-1.4477508E-1,5.0330665E-2,4.1090804E-1],"split_indices":[0,6,6,7,3,7,6,1,3,1,1,3,5,3,1,0,0,0,0,0,0,0,0,0,0,0,0,0,0,0,0],"split_type":[0,0,0,0,0,0,0,0,0,0,0,0,0,0,0,0,0,0,0,0,0,0,0,0,0,0,0,0,0,0,0],"sum_hessian":[2.0252E4,1.0957E4,9.295E3,1.0933E4,2.4E1,7.215E3,2.08E3,7.758E3,3.175E3,1.8E1,6E0,5.19E3,2.025E3,2.018E3,6.2E1,5.74E2,7.184E3,3.155E3,2E1,8E0,1E1,3E0,3E0,2.607E3,2.583E3,2.02E3,5E0,2.014E3,4E0,5.9E1,3E0],"tree_param":{"num_deleted":"0","num_feature":"14","num_nodes":"31","size_leaf_vector":"1"}},{"base_weights":[-5.5130576E-3,-5.7842586E-2,1.8577679E-1,-5.8992784E-2,1.8018869E-1,1.6571766E-1,1.0386412E0,-1.3622874E-1,-1.4239361E-2,1.493122E-1,1.0916953E0,-1.9018328E-1,1.8626939E0,-6.1236355E-3,-1.6415663E-2,-1.304026E-3,1.4852367E-2,3.4324403E-3,1.3047144E-2,7.146465E-2,1.12112E-2,2.9687008E-2,-3.8718414E-2,1.2483563E-1,1.7893946E-2],"categories":[],"categories_nodes":[],"categories_segments":[],"categories_sizes":[],"default_left":[0,0,0,0,0,0,0,0,0,0,0,0,0,0,0,0,0,0,0,0,0,0,0,0,0],"id":41,"left_children":[1,3,5,7,-1,9,11,13,15,17,19,21,23,-1,-1,-1,-1,-1,-1,-1,-1,-1,-1,-1,-1],"loss_changes":[2.0342336E2,6.706649E1,7.43826E1,5.5129185E1,0E0,6.451805E1,1.0178312E2,1.5377579E1,3.722026E1,3.770504E1,2.1185524E1,1.9254044E1,5.6065872E1,0E0,0E0,0E0,0E0,0E0,0E0,0E0,0E0,0E0,0E0,0E0,0E0],"parents":[2147483647,0,0,1,1,2,2,3,3,5,5,6,6,7,7,8,8,9,9,10,10,11,11,12,12],"right_children":[2,4,6,8,-1,10,12,14,16,18,20,22,24,-1,-1,-1,-1,-1,-1,-1,-1,-1,-1,-1,-1],"split_conditions":[1.4860237E2,1.16E1,4.6666665E0,-7.401904E1,1.8018869E-1,5.705456E2,1.5099066E3,3.25E0,3.4E0,1.6666666E0,1.2255322E3,1.25E0,4.2362326E2,-6.1236355E-3,-1.6415663E-2,-1.304026E-3,1.4852367E-2,3.4324403E-3,1.3047144E-2,7.146465E-2,1.12112E-2,2.9687008E-2,-3.8718414E-2,1.2483563E-1,1.7893946E-2],"split_indices":[0,6,6,0,0,0,1,4,6,6,2,4,0,0,0,0,0,0,0,0,0,0,0,0,0],"split_type":[0,0,0,0,0,0,0,0,0,0,0,0,0,0,0,0,0,0,0,0,0,0,0,0,0],"sum_hessian":[2.0321E4,1.5957E4,4.364E3,1.5953E4,4E0,4.265E3,9.9E1,5.851E3,1.0102E4,4.192E3,7.3E1,4E1,5.9E1,5.462E3,3.89E2,9.733E3,3.69E2,2.435E3,1.757E3,5.2E1,2.1E1,1.7E1,2.3E1,4.1E1,1.8E1],"tree_param":{"num_deleted":"0","num_feature":"14","num_nodes":"25","size_leaf_vector":"1"}},{"base_weights":[5.50125E-3,-1.578986E-2,5.154842E-1,-9.191378E-2,7.639135E-2,-4.248909E-2,7.921812E-1,-6.068065E-2,-1.6947274E-1,-4.0300492E-2,1.400326E-1,1.3563687E-1,-5.1350844E-1,7.024403E-1,1.9095856E0,-3.1094793E-3,1.1197599E-1,3.919495E-2,-8.690169E-3,-4.0604197E-3,9.04411E-3,3.1509928E-3,1.43775465E-2,2.3287253E-3,5.6978013E-2,-1.021933E-2,-4.4885617E-2,3.9258678E-2,-4.6168618E-2,2.67871E-1,6.3055575E-2],"categories":[],"categories_nodes":[],"categories_segments":[],"categories_sizes":[],"default_left":[0,0,0,0,0,0,0,0,0,0,0,0,0,0,0,0,0,0,0,0,0,0,0,0,0,0,0,0,0,0,0],"id":42,"left_children":[1,3,5,7,9,11,13,15,17,19,21,23,25,27,29,-1,-1,-1,-1,-1,-1,-1,-1,-1,-1,-1,-1,-1,-1,-1,-1],"loss_changes":[2.2162856E2,1.374684E2,1.2639928E2,2.5959145E1,6.581365E1,2.2928448E1,5.324887E1,2.648048E1,1.2787529E1,2.8298185E1,6.5089615E1,1.7531843E1,8.613745E0,6.904161E1,8.201511E1,0E0,0E0,0E0,0E0,0E0,0E0,0E0,0E0,0E0,0E0,0E0,0E0,0E0,0E0,0E0,0E0],"parents":[2147483647,0,0,1,1,2,2,3,3,4,4,5,5,6,6,7,7,8,8,9,9,10,10,11,11,12,12,13,13,14,14],"right_children":[2,4,6,8,10,12,14,16,18,20,22,24,26,28,30,-1,-1,-1,-1,-1,-1,-1,-1,-1,-1,-1,-1,-1,-1,-1,-1],"split_conditions":[3.4E0,3.1918789E1,1.4071794E3,1E0,1E0,1.5E0,7.6E0,7E0,2E-1,1.8013667E3,1.6666666E0,7.2E0,8.546932E1,3.5E0,8E0,-3.1094793E-3,1.1197599E-1,3.919495E-2,-8.690169E-3,-4.0604197E-3,9.04411E-3,3.1509928E-3,1.43775465E-2,2.3287253E-3,5.6978013E-2,-1.021933E-2,-4.4885617E-2,3.9258678E-2,-4.6168618E-2,2.67871E-1,6.3055575E-2],"split_indices":[6,0,1,7,12,12,6,4,4,1,6,6,0,4,6,0,0,0,0,0,0,0,0,0,0,0,0,0,0,0,0],"split_type":[0,0,0,0,0,0,0,0,0,0,0,0,0,0,0,0,0,0,0,0,0,0,0,0,0,0,0,0,0,0,0],"sum_hessian":[2.0405E4,1.9588E4,8.17E2,1.0729E4,8.859E3,2.71E2,5.46E2,7.651E3,3.078E3,3.126E3,5.733E3,1.97E2,7.4E1,5.07E2,3.9E1,7.647E3,4E0,1.3E1,3.065E3,2.639E3,4.87E2,3.768E3,1.965E3,1.82E2,1.5E1,4.2E1,3.2E1,4.83E2,2.4E1,5E0,3.4E1],"tree_param":{"num_deleted":"0","num_feature":"14","num_nodes":"31","size_leaf_vector":"1"}},{"base_weights":[-4.616595E-3,-5.0398424E-2,1.6279761E-1,-1.4183757E-1,-2.1105153E-2,1.5631905E-1,2.7002938E0,2.2453556E-2,-1.6372758E-1,-8.5290745E-2,1.3446899E-2,1.19007476E-1,4.0735102E-1,2.4653624E-1,1.5737335E-4,6.1054546E-3,-7.0821554E-3,-8.543291E-3,1.5411305E-2,1.1943815E-3,-7.254024E-3,-2.433774E-4,1.1867168E-2,-6.6803456E-3,7.163116E-3,-2.5565026E-2,2.5310313E-2],"categories":[],"categories_nodes":[],"categories_segments":[],"categories_sizes":[],"default_left":[0,0,0,0,0,0,0,0,0,0,0,0,0,0,0,0,0,0,0,0,0,0,0,0,0,0,0],"id":43,"left_children":[1,3,5,7,9,11,13,15,17,19,21,23,25,-1,-1,-1,-1,-1,-1,-1,-1,-1,-1,-1,-1,-1,-1],"loss_changes":[1.5558691E2,4.2682175E1,7.095123E1,1.3924828E1,2.678981E1,4.063336E1,6.566488E1,7.4560213E0,1.1537064E1,2.7608366E1,3.2213642E1,2.3229637E1,5.1295532E1,0E0,0E0,0E0,0E0,0E0,0E0,0E0,0E0,0E0,0E0,0E0,0E0,0E0,0E0],"parents":[2147483647,0,0,1,1,2,2,3,3,4,4,5,5,6,6,7,7,8,8,9,9,10,10,11,11,12,12],"right_children":[2,4,6,8,10,12,14,16,18,20,22,24,26,-1,-1,-1,-1,-1,-1,-1,-1,-1,-1,-1,-1,-1,-1],"split_conditions":[1.4860237E2,-1.2985231E2,3.6E0,4E0,6E0,3.684797E2,1.4721884E3,1.25E0,1.1E0,2E0,2.5E0,2E0,1.5696951E3,2.4653624E-1,1.5737335E-4,6.1054546E-3,-7.0821554E-3,-8.543291E-3,1.5411305E-2,1.1943815E-3,-7.254024E-3,-2.433774E-4,1.1867168E-2,-6.6803456E-3,7.163116E-3,-2.5565026E-2,2.5310313E-2],"split_indices":[0,0,5,8,9,0,2,4,11,8,5,9,1,0,0,0,0,0,0,0,0,0,0,0,0,0,0],"split_type":[0,0,0,0,0,0,0,0,0,0,0,0,0,0,0,0,0,0,0,0,0,0,0,0,0,0,0],"sum_hessian":[2.0299E4,1.5941E4,4.358E3,3.866E3,1.2075E4,4.348E3,1E1,4.54E2,3.412E3,4.226E3,7.849E3,3.787E3,5.61E2,5E0,5E0,2.83E2,1.71E2,3.362E3,5E1,1.495E3,2.731E3,7.256E3,5.93E2,3.31E2,3.456E3,5.4E1,5.07E2],"tree_param":{"num_deleted":"0","num_feature":"14","num_nodes":"27","size_leaf_vector":"1"}},{"base_weights":[-2.540425E-3,-4.1367423E-2,1.7170554E-1,-9.055406E-2,2.0098008E-2,1.3850942E-1,6.579959E-1,-2.3606637E-1,-7.6613404E-2,-6.732935E-2,7.129664E-2,1.3322565E-1,1.5794693E-1,3.1755105E-1,1.0677181E0,-6.734397E-3,-1.6982576E-2,-4.117021E-3,1.10146515E-2,-8.9144E-3,-1.8641294E-4,-4.330576E-3,6.2437593E-3,-1.316403E-3,1.0179772E-2,-2.9296686E-3,4.3705724E-2,9.0315126E-2,3.843382E-2],"categories":[],"categories_nodes":[],"categories_segments":[],"categories_sizes":[],"default_left":[0,0,0,0,0,0,0,0,0,0,0,0,0,0,0,0,0,0,0,0,0,0,0,0,0,0,0,0,0],"id":44,"left_children":[1,3,5,7,9,11,13,15,17,19,21,23,-1,25,27,-1,-1,-1,-1,-1,-1,-1,-1,-1,-1,-1,-1,-1,-1],"loss_changes":[1.3796861E2,5.0434113E1,5.9816444E1,1.8747063E1,3.319146E1,5.478808E1,3.2581024E1,8.402374E0,1.43862E1,1.930345E1,3.958435E1,3.9039555E1,0E0,2.7557384E1,2.1986862E1,0E0,0E0,0E0,0E0,0E0,0E0,0E0,0E0,0E0,0E0,0E0,0E0,0E0,0E0],"parents":[2147483647,0,0,1,1,2,2,3,3,4,4,5,5,6,6,7,7,8,8,9,9,10,10,11,11,13,13,14,14],"right_children":[2,4,6,8,10,12,14,16,18,20,22,24,-1,26,28,-1,-1,-1,-1,-1,-1,-1,-1,-1,-1,-1,-1,-1,-1],"split_conditions":[1.6630324E2,-7.912913E-1,4.5299933E2,1.2652129E3,1E0,4.4E0,1.5E0,1.3E0,1.1E0,1.4921764E3,6E0,1E0,1.5794693E-1,1.8066473E3,1.131167E3,-6.734397E-3,-1.6982576E-2,-4.117021E-3,1.10146515E-2,-8.9144E-3,-1.8641294E-4,-4.330576E-3,6.2437593E-3,-1.316403E-3,1.0179772E-2,-2.9296686E-3,4.3705724E-2,9.0315126E-2,3.843382E-2],"split_indices":[0,0,0,1,12,5,12,12,11,2,9,12,0,1,2,0,0,0,0,0,0,0,0,0,0,0,0,0,0],"split_type":[0,0,0,0,0,0,0,0,0,0,0,0,0,0,0,0,0,0,0,0,0,0,0,0,0,0,0,0,0],"sum_hessian":[2.0393E4,1.6678E4,3.715E3,9.265E3,7.413E3,3.479E3,2.36E2,8.08E2,8.457E3,2.737E3,4.676E3,3.474E3,5E0,1.3E2,1.06E2,4.1E2,3.98E2,8.298E3,1.59E2,9.96E2,1.741E3,1.184E3,3.492E3,1.063E3,2.411E3,7.8E1,5.2E1,2.9E1,7.7E1],"tree_param":{"num_deleted":"0","num_feature":"14","num_nodes":"29","size_leaf_vector":"1"}},{"base_weights":[1.25472145E-2,7.2986697E-4,6.167311E-1,-7.027897E-2,7.137942E-2,7.892469E-2,9.557681E-1,-2.1972236E-1,-5.2722704E-2,-4.4263966E-2,1.3265464E-1,-1.1458842E-1,6.8618405E-1,7.522959E-1,1.9773617E0,-1.6214622E-2,-8.822436E-3,2.5685102E-2,-2.7834421E-3,-4.751175E-3,4.3684333E-3,4.132787E-3,1.5564213E-2,7.314203E-3,-2.4464434E-2,-2.8046265E-2,5.5532254E-2,4.489051E-2,-3.8571127E-2,6.9771886E-2,3.3476683E-1],"categories":[],"categories_nodes":[],"categories_segments":[],"categories_sizes":[],"default_left":[0,0,0,0,0,0,0,0,0,0,0,0,0,0,0,0,0,0,0,0,0,0,0,0,0,0,0,0,0,0,0],"id":45,"left_children":[1,3,5,7,9,11,13,15,17,19,21,23,25,27,29,-1,-1,-1,-1,-1,-1,-1,-1,-1,-1,-1,-1,-1,-1,-1,-1],"loss_changes":[1.451481E2,1.00084145E2,7.0932236E1,2.6064049E1,7.088252E1,1.799771E1,4.791942E1,4.621464E0,1.484317E1,2.3154165E1,5.8327614E1,1.1444757E1,2.0263891E1,4.5271523E1,9.692261E1,0E0,0E0,0E0,0E0,0E0,0E0,0E0,0E0,0E0,0E0,0E0,0E0,0E0,0E0,0E0,0E0],"parents":[2147483647,0,0,1,1,2,2,3,3,4,4,5,5,6,6,7,7,8,8,9,9,10,10,11,11,12,12,13,13,14,14],"right_children":[2,4,6,8,10,12,14,16,18,20,22,24,26,28,30,-1,-1,-1,-1,-1,-1,-1,-1,-1,-1,-1,-1,-1,-1,-1,-1],"split_conditions":[4.25E0,1.5215029E1,1.4071794E3,-2.8483456E2,1E0,6.2E0,7.8E0,1.2271294E3,2E-1,1.7369342E3,2.2E0,5E0,1.2573638E3,3.5E0,2.657775E2,-1.6214622E-2,-8.822436E-3,2.5685102E-2,-2.7834421E-3,-4.751175E-3,4.3684333E-3,4.132787E-3,1.5564213E-2,7.314203E-3,-2.4464434E-2,-2.8046265E-2,5.5532254E-2,4.489051E-2,-3.8571127E-2,6.9771886E-2,3.3476683E-1],"split_indices":[6,0,1,0,12,6,6,1,4,1,6,6,1,4,0,0,0,0,0,0,0,0,0,0,0,0,0,0,0,0,0],"split_type":[0,0,0,0,0,0,0,0,0,0,0,0,0,0,0,0,0,0,0,0,0,0,0,0,0,0,0,0,0,0,0],"sum_hessian":[2.0337E4,1.9948E4,3.89E2,9.948E3,1E4,1.51E2,2.38E2,1.044E3,8.904E3,3.463E3,6.537E3,1.15E2,3.6E1,2E2,3.8E1,3.03E2,7.41E2,4.5E1,8.859E3,2.5E3,9.63E2,5.109E3,1.428E3,6.8E1,4.7E1,9E0,2.7E1,1.83E2,1.7E1,3.5E1,3E0],"tree_param":{"num_deleted":"0","num_feature":"14","num_nodes":"31","size_leaf_vector":"1"}},{"base_weights":[7.378066E-4,-7.055877E-2,8.512407E-2,-2.0435794E-1,-5.5359848E-2,-5.3362306E-2,1.5548377E-1,-1.13514334E-1,-3.0821773E-1,4.299462E-2,-7.037628E-2,-4.168987E-1,-2.7004438E-2,1.506097E-1,2.8542054E0,1.8792784E-2,-6.2591354E-3,-1.4173393E-2,-3.0635526E-2,-1.1334697E-3,1.2369654E-2,-6.5589002E-3,-1.1783795E-3,-3.5566546E-2,1.1961127E-2,-1.5931142E-3,9.91022E-2,9.102431E-3,-4.980028E-3,3.5172245E-1,1.97404E-2],"categories":[],"categories_nodes":[],"categories_segments":[],"categories_sizes":[],"default_left":[0,0,0,0,0,0,0,0,0,0,0,0,0,0,0,0,0,0,0,0,0,0,0,0,0,0,0,0,0,0,0],"id":46,"left_children":[1,3,5,7,9,11,13,15,17,19,21,23,25,27,29,-1,-1,-1,-1,-1,-1,-1,-1,-1,-1,-1,-1,-1,-1,-1,-1],"loss_changes":[1.2188273E2,2.2291683E1,9.042205E1,1.0480602E1,1.4571274E1,2.989782E1,8.020474E1,3.4423633E0,3.6630402E0,1.7556723E1,2.4335072E1,4.097904E1,2.832727E1,4.834932E1,1.09569496E2,0E0,0E0,0E0,0E0,0E0,0E0,0E0,0E0,0E0,0E0,0E0,0E0,0E0,0E0,0E0,0E0],"parents":[2147483647,0,0,1,1,2,2,3,3,4,4,5,5,6,6,7,7,8,8,9,9,10,10,11,11,12,12,13,13,14,14],"right_children":[2,4,6,8,10,12,14,16,18,20,22,24,26,28,30,-1,-1,-1,-1,-1,-1,-1,-1,-1,-1,-1,-1,-1,-1,-1,-1],"split_conditions":[3.4964207E1,1.298252E3,1E0,1.3E0,2E0,2.5E-1,5.6666665E0,2E-1,-6.5892235E1,2E0,5E0,1.6580261E3,4.6666665E0,2.5E0,1.3862445E3,1.8792784E-2,-6.2591354E-3,-1.4173393E-2,-3.0635526E-2,-1.1334697E-3,1.2369654E-2,-6.5589002E-3,-1.1783795E-3,-3.5566546E-2,1.1961127E-2,-1.5931142E-3,9.91022E-2,9.102431E-3,-4.980028E-3,3.5172245E-1,1.97404E-2],"split_indices":[0,1,12,12,8,5,3,5,0,9,9,1,3,12,2,0,0,0,0,0,0,0,0,0,0,0,0,0,0,0,0],"split_type":[0,0,0,0,0,0,0,0,0,0,0,0,0,0,0,0,0,0,0,0,0,0,0,0,0,0,0,0,0,0,0],"sum_hessian":[2.0256E4,1.0979E4,9.277E3,1.118E3,9.861E3,3.125E3,6.152E3,5.98E2,5.2E2,1.305E3,8.556E3,2.1E2,2.915E3,6.142E3,1E1,1.3E1,5.85E2,4.83E2,3.7E1,9.88E2,3.17E2,3.72E3,4.836E3,1.45E2,6.5E1,2.909E3,6E0,5.457E3,6.85E2,3E0,7E0],"tree_param":{"num_deleted":"0","num_feature":"14","num_nodes":"31","size_leaf_vector":"1"}},{"base_weights":[-4.6862202E-5,-3.8932763E-2,1.4629595E-1,-1.404921E-1,-1.903729E-2,1.4044692E-1,2.8647301E0,-1.5290397E-1,1.3930783E-1,1.4880842E-2,-9.802475E-2,-2.7902111E-2,2.125178E-1,2.3620068E-1,-3.0768866E-2,-1.1634771E-2,-5.424214E-3,-7.268205E-3,4.4093E-2,5.5214465E-3,-1.0029435E-3,-5.100914E-3,1.5482028E-1,5.78499E-3,-5.445548E-3,1.36066275E-2,-2.8034267E-3],"categories":[],"categories_nodes":[],"categories_segments":[],"categories_sizes":[],"default_left":[0,0,0,0,0,0,0,0,0,0,0,0,0,0,0,0,0,0,0,0,0,0,0,0,0,0,0],"id":47,"left_children":[1,3,5,7,9,11,13,15,17,19,21,23,25,-1,-1,-1,-1,-1,-1,-1,-1,-1,-1,-1,-1,-1,-1],"loss_changes":[1.14747375E2,3.217513E1,6.660284E1,9.083309E0,3.5708874E1,5.128659E1,6.155246E1,8.797874E0,2.3665438E1,3.1132027E1,5.109571E1,1.4750963E1,4.741548E1,0E0,0E0,0E0,0E0,0E0,0E0,0E0,0E0,0E0,0E0,0E0,0E0,0E0,0E0],"parents":[2147483647,0,0,1,1,2,2,3,3,4,4,5,5,6,6,7,7,8,8,9,9,10,10,11,11,12,12],"right_children":[2,4,6,8,10,12,14,16,18,20,22,24,26,-1,-1,-1,-1,-1,-1,-1,-1,-1,-1,-1,-1,-1,-1],"split_conditions":[1.505569E2,1.3846805E3,5.6666665E0,1.2E1,1E0,1E0,5E0,1E0,-2.4625738E1,1.509996E3,6.4E0,2E0,1.5501434E3,2.3620068E-1,-3.0768866E-2,-1.1634771E-2,-5.424214E-3,-7.268205E-3,4.4093E-2,5.5214465E-3,-1.0029435E-3,-5.100914E-3,1.5482028E-1,5.78499E-3,-5.445548E-3,1.36066275E-2,-2.8034267E-3],"split_indices":[0,1,3,13,7,12,13,5,0,2,3,8,2,0,0,0,0,0,0,0,0,0,0,0,0,0,0],"split_type":[0,0,0,0,0,0,0,0,0,0,0,0,0,0,0,0,0,0,0,0,0,0,0,0,0,0,0],"sum_hessian":[2.0164E4,1.5932E4,4.232E3,2.608E3,1.3324E4,4.224E3,8E0,2.498E3,1.1E2,9.321E3,4.003E3,1.266E3,2.958E3,5E0,3E0,8.91E2,1.607E3,8E1,3E1,2.496E3,6.825E3,3.999E3,4E0,4.56E2,8.1E2,2.421E3,5.37E2],"tree_param":{"num_deleted":"0","num_feature":"14","num_nodes":"27","size_leaf_vector":"1"}},{"base_weights":[-4.1095036E-4,-1.6307814E-2,3.8609737E-1,1.9212006E-2,-1.0737462E-1,3.5345075E-1,3.396949E-1,-5.177453E-2,7.653942E-2,-1.30439E-1,1.1798204E-1,3.288684E-1,2.0881365E-1,-2.6636051E-3,1.1425542E-1,1.341278E-3,8.506499E-3,5.5862977E-3,-7.151626E-3,-1.8897554E-2,1.121053E-2,-3.0433123E-3,2.5590418E-2],"categories":[],"categories_nodes":[],"categories_segments":[],"categories_sizes":[],"default_left":[0,0,0,0,0,0,0,0,0,0,0,0,0,0,0,0,0,0,0,0,0,0,0],"id":48,"left_children":[1,3,5,7,9,11,-1,13,15,17,19,21,-1,-1,-1,-1,-1,-1,-1,-1,-1,-1,-1],"loss_changes":[1.24894615E2,6.318412E1,1.6486598E2,5.718256E1,2.8505295E1,7.335524E1,0E0,2.186583E1,3.6146202E1,1.518531E1,2.688464E1,5.682949E1,0E0,0E0,0E0,0E0,0E0,0E0,0E0,0E0,0E0,0E0,0E0],"parents":[2147483647,0,0,1,1,2,2,3,3,4,4,5,5,7,7,8,8,9,9,10,10,11,11],"right_children":[2,4,6,8,10,12,-1,14,16,18,20,22,-1,-1,-1,-1,-1,-1,-1,-1,-1,-1,-1],"split_conditions":[3.4E0,1E0,2.6666667E0,-8.912753E0,2.5E0,5.6666665E0,3.396949E-1,7E0,1.5E0,1.2885927E3,2E0,1.3961669E3,2.0881365E-1,-2.6636051E-3,1.1425542E-1,1.341278E-3,8.506499E-3,5.5862977E-3,-7.151626E-3,-1.8897554E-2,1.121053E-2,-3.0433123E-3,2.5590418E-2],"split_indices":[6,7,5,0,3,3,0,4,12,2,9,1,0,0,0,0,0,0,0,0,0,0,0],"split_type":[0,0,0,0,0,0,0,0,0,0,0,0,0,0,0,0,0,0,0,0,0,0,0],"sum_hessian":[2.0331E4,1.9529E4,8.02E2,1.4049E4,5.48E3,7.99E2,3E0,6.276E3,7.773E3,4.972E3,5.08E2,7.95E2,4E0,6.273E3,3E0,5.078E3,2.695E3,2.45E2,4.727E3,8.9E1,4.19E2,2.54E2,5.41E2],"tree_param":{"num_deleted":"0","num_feature":"14","num_nodes":"23","size_leaf_vector":"1"}},{"base_weights":[2.434574E-3,-3.1674057E-2,1.8403967E-1,-5.2965183E-2,1.0855239E-1,1.7692922E-1,2.3581536E-1,2.411393E-2,-7.451729E-2,1.03938684E-1,1.07750095E-1,-5.2605905E-2,2.6783633E-1,-1.8678252E-3,7.441794E-3,-2.3751245E-3,-6.993666E-3,7.5687156E-3,-3.595339E-3,-3.4112872E-3,1.3934867E-1,2.4357743E-5,1.9483138E-2],"categories":[],"categories_nodes":[],"categories_segments":[],"categories_sizes":[],"default_left":[0,0,0,0,0,0,0,0,0,0,0,0,0,0,0,0,0,0,0,0,0,0,0],"id":49,"left_children":[1,3,5,7,9,11,-1,13,15,17,-1,19,21,-1,-1,-1,-1,-1,-1,-1,-1,-1,-1],"loss_changes":[1.2657063E2,5.135215E1,1.0279973E2,2.4815456E1,2.0954456E1,6.737142E1,0E0,2.5033188E1,2.0582474E1,1.8895285E1,0E0,4.0546318E1,7.526308E1,0E0,0E0,0E0,0E0,0E0,0E0,0E0,0E0,0E0,0E0],"parents":[2147483647,0,0,1,1,2,2,3,3,4,4,5,5,7,7,8,8,9,9,11,11,12,12],"right_children":[2,4,6,8,10,12,-1,14,16,18,-1,20,22,-1,-1,-1,-1,-1,-1,-1,-1,-1,-1],"split_conditions":[2.2E0,1.8144508E2,4.2E0,3E0,3.5E0,1E0,2.3581536E-1,3E0,1E0,1E0,1.07750095E-1,4.6666665E0,1E0,-1.8678252E-3,7.441794E-3,-2.3751245E-3,-6.993666E-3,7.5687156E-3,-3.595339E-3,-3.4112872E-3,1.3934867E-1,2.4357743E-5,1.9483138E-2],"split_indices":[6,0,5,8,5,12,0,9,7,7,0,3,3,0,0,0,0,0,0,0,0,0,0],"split_type":[0,0,0,0,0,0,0,0,0,0,0,0,0,0,0,0,0,0,0,0,0,0,0],"sum_hessian":[2.0429E4,1.7199E4,3.23E3,1.4933E4,2.266E3,3.226E3,4E0,3.262E3,1.1671E4,2.262E3,4E0,9.15E2,2.311E3,2.185E3,1.077E3,8.26E3,3.411E3,1.782E3,4.8E2,9.11E2,4E0,7.24E2,1.587E3],"tree_param":{"num_deleted":"0","num_feature":"14","num_nodes":"23","size_leaf_vector":"1"}},{"base_weights":[3.3562295E-3,-1.6686456E-2,2.0518403E-1,-1.7590774E-2,1.6608346E-1,1.9296049E-1,1.9494009E-1,-4.3134753E-2,8.561088E-2,9.2205405E-2,5.4451746E-1,-6.21277E-4,-5.7836953E-3,1.3785486E-2,2.0178426E-3,9.549777E-3,-3.3012119E-3,5.64171E-3,3.2855537E-2],"categories":[],"categories_nodes":[],"categories_segments":[],"categories_sizes":[],"default_left":[0,0,0,0,0,0,0,0,0,0,0,0,0,0,0,0,0,0,0],"id":50,"left_children":[1,3,5,7,-1,9,-1,11,13,15,17,-1,-1,-1,-1,-1,-1,-1,-1],"loss_changes":[8.2527596E1,5.5741318E1,8.2048355E1,4.89006E1,0E0,6.499019E1,0E0,3.3112694E1,3.1615349E1,2.237819E1,1.9728172E1,0E0,0E0,0E0,0E0,0E0,0E0,0E0,0E0],"parents":[2147483647,0,0,1,1,2,2,3,3,5,5,7,7,8,8,9,9,10,10],"right_children":[2,4,6,8,-1,10,-1,12,14,16,18,-1,-1,-1,-1,-1,-1,-1,-1],"split_conditions":[2.5E0,1.48E1,7.8E0,1.4860237E2,1.6608346E-1,2E0,1.9494009E-1,1E0,1.2738086E3,1.6349326E3,1E0,-6.21277E-4,-5.7836953E-3,1.3785486E-2,2.0178426E-3,9.549777E-3,-3.3012119E-3,5.64171E-3,3.2855537E-2],"split_indices":[3,6,6,0,0,6,0,7,2,2,12,0,0,0,0,0,0,0,0],"split_type":[0,0,0,0,0,0,0,0,0,0,0,0,0,0,0,0,0,0,0],"sum_hessian":[2.0395E4,1.8553E4,1.842E3,1.8549E4,4E0,1.837E3,5E0,1.487E4,3.679E3,1.429E3,4.08E2,1.0449E4,4.421E3,7.06E2,2.973E3,8.8E2,5.49E2,8.5E1,3.23E2],"tree_param":{"num_deleted":"0","num_feature":"14","num_nodes":"19","size_leaf_vector":"1"}},{"base_weights":[-2.91913E-3,-2.619531E-2,1.9508536E-1,-2.9037325E-2,1.111307E0,1.867232E-1,2.278718E-1,-4.529733E-2,1.6091013E-1,2.867809E0,4.5573848E-1,1.6751148E-1,1.3586808E0,-1.9900452E-3,-1.9594064E-2,